{"estimators": [{"children_left": [1, 2, -1, 4, 5, -1, -1, -1, 9, 10, 11, -1, -1, 14, -1, -1, 17, 18, -1, 20, 21, -1, -1, -1, 25, -1, -1], "children_right": [8, 3, -1, 7, 6, -1, -1, -1, 16, 13, 12, -1, -1, 15, -1, -1, 24, 19, -1, 23, 22, -1, -1, -1, 26, -1, -1], "feature": [96, 96, -2, 88, 96, -2, -2, -2, 94, 96, 39, -2, -2, 47, -2, -2, 95, 94, -2, 37, 89, -2, -2, -2, 96, -2, -2], "threshold": [4.5, 1.5, -2.0, 0.5, 2.5, -2.0, -2.0, -2.0, 3.0, 7.0, 0.5, -2.0, -2.0, 0.5, -2.0, -2.0, 14.0, 5.0, -2.0, 0.5, 0.5, -2.0, -2.0, -2.0, 51.0, -2.0, -2.0], "value": [[[48.80434782608695]], [[69.65384615384616]], [[77.0]], [[63.357142857142854]], [[64.61538461538461]], [[66.0]], [[60.0]], [[47.0]], [[21.7]], [[34.875]], [[39.6]], [[39.0]], [[42.0]], [[27.0]], [[26.0]], [[29.0]], [[12.916666666666666]], [[17.571428571428573]], [[20.0]], [[15.75]], [[16.666666666666668]], [[17.0]], [[16.0]], [[13.0]], [[6.4]], [[8.0]], [[4.0]]], "impurity": [665.6356332703217, 60.53402366863793, 0.0, 26.5153061224496, 6.390532544379312, 0.0, 0.0, 0.0, 152.51, 38.859375, 1.4399999999998272, 0.0, 0.0, 2.0, 0.0, 0.0, 35.40972222222223, 5.95918367346934, 0.0, 2.6875, 0.2222222222221717, 0.0, 0.0, 0.0, 3.839999999999989, 0.0, 0.0]}, {"children_left": [1, 2, 3, -1, 5, -1, -1, 8, -1, -1, 11, 12, 13, -1, -1, 16, -1, 18, -1, -1, 21, 22, -1, -1, 25, 26, -1, -1, 29, -1, -1], "children_right": [10, 7, 4, -1, 6, -1, -1, 9, -1, -1, 20, 15, 14, -1, -1, 17, -1, 19, -1, -1, 24, 23, -1, -1, 28, 27, -1, -1, 30, -1, -1], "feature": [96, 96, 96, -2, 96, -2, -2, 96, -2, -2, 96, 96, 3, -2, -2, 96, -2, 96, -2, -2, 96, 95, -2, -2, 93, 31, -2, -2, 96, -2, -2], "threshold": [5.5, 3.5, 1.5, -2.0, 2.5, -2.0, -2.0, 4.5, -2.0, -2.0, 14.0, 7.5, 0.5, -2.0, -2.0, 8.5, -2.0, 10.0, -2.0, -2.0, 27.5, 9.0, -2.0, -2.0, 18.5, 0.5, -2.0, -2.0, 73.0, -2.0, -2.0], "value": [[[43.30434782608695]], [[61.69230769230769]], [[69.76470588235294]], [[77.0]], [[63.333333333333336]], [[66.0]], [[60.0]], [[46.44444444444444]], [[47.0]], [[42.0]], [[19.4]], [[30.875]], [[37.0]], [[39.0]], [[33.0]], [[27.2]], [[29.0]], [[24.5]], [[26.0]], [[23.0]], [[11.75]], [[16.428571428571427]], [[17.0]], [[16.0]], [[5.2]], [[8.5]], [[9.0]], [[8.0]], [[3.0]], [[5.0]], [[2.0]]], "impurity": [580.7334593572782, 157.44378698224818, 51.238754325258924, 0.0, 8.888888888888687, 0.0, 0.0, 2.4691358024692818, 0.0, 0.0, 120.04000000000002, 29.109375, 8.0, 0.0, 0.0, 5.760000000000105, 0.0, 2.25, 0.0, 0.0, 34.35416666666666, 0.24489795918373147, 0.0, 0.0, 8.559999999999999, 0.25, 0.0, 0.0, 2.0, 0.0, 0.0]}, {"children_left": [1, 2, -1, 4, -1, -1, 7, 8, -1, 10, -1, -1, 13, 14, -1, -1, 17, -1, 19, -1, -1], "children_right": [6, 3, -1, 5, -1, -1, 12, 9, -1, 11, -1, -1, 16, 15, -1, -1, 18, -1, 20, -1, -1], "feature": [96, 96, -2, 96, -2, -2, 94, 96, -2, 3, -2, -2, 94, 96, -2, -2, 96, -2, 45, -2, -2], "threshold": [3.5, 1.5, -2.0, 2.5, -2.0, -2.0, 3.5, 5.0, -2.0, 0.5, -2.0, -2.0, 9.0, 16.5, -2.0, -2.0, 47.5, -2.0, 0.5, -2.0, -2.0], "value": [[[52.58695652173913]], [[72.73076923076923]], [[77.0]], [[64.66666666666667]], [[66.0]], [[60.0]], [[26.4]], [[41.0]], [[47.0]], [[37.0]], [[39.0]], [[33.0]], [[11.8]], [[18.6]], [[20.0]], [[13.0]], [[5.0]], [[8.0]], [[4.25]], [[4.0]], [[5.0]]], "impurity": [658.2859168241966, 36.58136094674683, 0.0, 6.222222222221717, 0.0, 0.0, 253.24000000000012, 28.799999999999955, 0.0, 8.0, 0.0, 0.0, 51.359999999999985, 7.839999999999975, 0.0, 0.0, 2.3999999999999986, 0.0, 0.1875, 0.0, 0.0]}, {"children_left": [1, 2, -1, 4, 5, -1, -1, -1, 9, 10, -1, 12, -1, 14, -1, -1, 17, -1, 19, 20, -1, -1, -1], "children_right": [8, 3, -1, 7, 6, -1, -1, -1, 16, 11, -1, 13, -1, 15, -1, -1, 18, -1, 22, 21, -1, -1, -1], "feature": [96, 96, -2, 96, 96, -2, -2, -2, 96, 96, -2, 96, -2, 82, -2, -2, 94, -2, 31, 96, -2, -2, -2], "threshold": [5.0, 1.5, -2.0, 3.5, 2.5, -2.0, -2.0, -2.0, 16.0, 7.0, -2.0, 9.5, -2.0, 0.5, -2.0, -2.0, 8.5, -2.0, 0.5, 76.5, -2.0, -2.0, -2.0], "value": [[[53.84782608695652]], [[67.51515151515152]], [[77.0]], [[61.35]], [[63.88235294117647]], [[66.0]], [[60.0]], [[47.0]], [[19.153846153846153]], [[28.428571428571427]], [[39.0]], [[24.2]], [[29.0]], [[21.0]], [[23.0]], [[20.0]], [[8.333333333333334]], [[16.0]], [[4.5]], [[3.3333333333333335]], [[4.0]], [[2.0]], [[8.0]]], "impurity": [576.172495274102, 84.73461891643728, 0.0, 43.32749999999987, 8.221453287197164, 0.0, 0.0, 0.0, 145.82248520710067, 56.53061224489795, 0.0, 16.56000000000006, 0.0, 2.0, 0.0, 0.0, 32.55555555555554, 0.0, 4.75, 0.8888888888888875, 0.0, 0.0, 0.0]}, {"children_left": [1, 2, -1, 4, 5, -1, -1, -1, 9, 10, 11, -1, -1, -1, 15, 16, 17, 18, -1, -1, -1, -1, 23, 24, -1, -1, 27, -1, -1], "children_right": [8, 3, -1, 7, 6, -1, -1, -1, 14, 13, 12, -1, -1, -1, 22, 21, 20, 19, -1, -1, -1, -1, 26, 25, -1, -1, 28, -1, -1], "feature": [96, 96, -2, 96, 96, -2, -2, -2, 96, 96, 96, -2, -2, -2, 96, 82, 37, 93, -2, -2, -2, -2, 96, 31, -2, -2, 96, -2, -2], "threshold": [4.5, 1.5, -2.0, 3.5, 2.5, -2.0, -2.0, -2.0, 10.5, 7.0, 5.5, -2.0, -2.0, -2.0, 28.0, 0.5, 0.5, 2.0, -2.0, -2.0, -2.0, -2.0, 47.5, 0.5, -2.0, -2.0, 61.5, -2.0, -2.0], "value": [[[49.369565217391305]], [[67.96551724137932]], [[77.0]], [[61.588235294117645]], [[64.71428571428571]], [[66.0]], [[60.0]], [[47.0]], [[17.647058823529413]], [[35.6]], [[40.0]], [[42.0]], [[39.0]], [[29.0]], [[10.166666666666666]], [[16.4]], [[15.5]], [[16.333333333333332]], [[16.0]], [[17.0]], [[13.0]], [[20.0]], [[5.714285714285714]], [[8.5]], [[9.0]], [[8.0]], [[4.6]], [[5.0]], [[4.0]]], "impurity": [706.1460302457467, 87.27467300832268, 0.0, 50.595155709342635, 6.061224489796587, 0.0, 0.0, 0.0, 165.64013840830444, 30.23999999999978, 2.0, 0.0, 0.0, 0.0, 31.805555555555557, 5.0400000000000205, 2.25, 0.22222222222228538, 0.0, 0.0, 0.0, 0.0, 3.3469387755102034, 0.25, 0.0, 0.0, 0.240000000000002, 0.0, 0.0]}, {"children_left": [1, 2, -1, 4, -1, -1, 7, 8, -1, 10, -1, -1, 13, 14, 15, 16, -1, -1, -1, -1, 21, 22, -1, -1, -1], "children_right": [6, 3, -1, 5, -1, -1, 12, 9, -1, 11, -1, -1, 20, 19, 18, 17, -1, -1, -1, -1, 24, 23, -1, -1, -1], "feature": [96, 96, -2, 96, -2, -2, 96, 96, -2, 3, -2, -2, 96, 80, 19, 94, -2, -2, -2, -2, 33, 94, -2, -2, -2], "threshold": [3.5, 1.5, -2.0, 2.5, -2.0, -2.0, 7.5, 5.0, -2.0, 0.5, -2.0, -2.0, 18.5, 0.5, 0.5, 3.0, -2.0, -2.0, -2.0, -2.0, 0.5, 9.5, -2.0, -2.0, -2.0], "value": [[[53.0]], [[69.81481481481481]], [[77.0]], [[64.875]], [[66.0]], [[60.0]], [[29.105263157894736]], [[42.77777777777778]], [[47.0]], [[37.5]], [[39.0]], [[33.0]], [[16.8]], [[23.0]], [[26.0]], [[27.0]], [[26.0]], [[29.0]], [[23.0]], [[17.0]], [[7.5]], [[11.0]], [[13.0]], [[9.0]], [[4.0]]], "impurity": [515.478260869565, 38.74348422496678, 0.0, 5.484375, 0.0, 0.0, 220.19944598337952, 25.283950617283836, 0.0, 6.75, 0.0, 0.0, 75.95999999999998, 21.0, 4.5, 2.0, 0.0, 0.0, 0.0, 0.0, 14.25, 4.0, 0.0, 0.0, 0.0]}, {"children_left": [1, 2, -1, 4, 5, -1, -1, -1, 9, 10, 11, -1, -1, 14, -1, 16, -1, -1, 19, 20, -1, 22, -1, -1, -1], "children_right": [8, 3, -1, 7, 6, -1, -1, -1, 18, 13, 12, -1, -1, 15, -1, 17, -1, -1, 24, 21, -1, 23, -1, -1, -1], "feature": [96, 96, -2, 96, 96, -2, -2, -2, 96, 93, 94, -2, -2, 95, -2, 44, -2, -2, 95, 94, -2, 31, -2, -2, -2], "threshold": [5.0, 1.5, -2.0, 3.5, 2.5, -2.0, -2.0, -2.0, 15.5, 1.5, 1.5, -2.0, -2.0, 2.0, -2.0, 0.5, -2.0, -2.0, 17.0, 9.0, -2.0, 0.5, -2.0, -2.0, -2.0], "value": [[[56.06521739130435]], [[67.74285714285715]], [[77.0]], [[61.57142857142857]], [[64.0]], [[66.0]], [[60.0]], [[47.0]], [[18.90909090909091]], [[30.0]], [[36.0]], [[33.0]], [[39.0]], [[26.0]], [[29.0]], [[24.5]], [[23.0]], [[26.0]], [[9.666666666666666]], [[11.2]], [[13.0]], [[8.5]], [[9.0]], [[8.0]], [[2.0]]], "impurity": [526.6261814744798, 82.476734693877, 0.0, 42.24489795918407, 8.0, 0.0, 0.0, 0.0, 125.35537190082641, 31.200000000000045, 9.0, 0.0, 0.0, 6.0, 0.0, 2.25, 0.0, 0.0, 15.8888888888889, 4.960000000000022, 0.0, 0.25, 0.0, 0.0, 0.0]}, {"children_left": [1, 2, 3, -1, -1, 6, -1, -1, 9, 10, 11, 12, -1, -1, -1, 16, -1, -1, 19, 20, -1, -1, 23, -1, 25, 26, -1, -1, -1], "children_right": [8, 5, 4, -1, -1, 7, -1, -1, 18, 15, 14, 13, -1, -1, -1, 17, -1, -1, 22, 21, -1, -1, 24, -1, 28, 27, -1, -1, -1], "feature": [96, 96, 96, -2, -2, 95, -2, -2, 94, 94, 12, 94, -2, -2, -2, 82, -2, -2, 96, 95, -2, -2, 93, -2, 64, 45, -2, -2, -2], "threshold": [5.5, 3.0, 1.5, -2.0, -2.0, 2.5, -2.0, -2.0, 5.5, 2.5, 0.5, 0.5, -2.0, -2.0, -2.0, 0.5, -2.0, -2.0, 28.0, 6.5, -2.0, -2.0, 16.0, -2.0, 0.5, 0.5, -2.0, -2.0, -2.0], "value": [[[43.52173913043478]], [[60.96296296296296]], [[71.5]], [[77.0]], [[66.0]], [[45.63636363636363]], [[47.0]], [[42.0]], [[18.736842105263158]], [[29.2]], [[32.714285714285715]], [[31.666666666666668]], [[29.0]], [[33.0]], [[39.0]], [[21.0]], [[23.0]], [[20.0]], [[7.111111111111111]], [[15.0]], [[17.0]], [[13.0]], [[4.857142857142857]], [[9.0]], [[4.166666666666667]], [[4.6]], [[4.0]], [[5.0]], [[2.0]]], "impurity": [601.1190926275995, 181.4430727023323, 30.25, 0.0, 0.0, 4.9586776859505335, 0.0, 0.0, 150.93074792243766, 36.15999999999997, 9.632653061224346, 3.555555555555543, 0.0, 0.0, 0.0, 2.0, 0.0, 0.0, 21.65432098765433, 4.0, 0.0, 0.0, 3.8367346938775526, 0.0, 1.1388888888888857, 0.240000000000002, 0.0, 0.0, 0.0]}, {"children_left": [1, 2, 3, -1, -1, 6, -1, -1, 9, 10, 11, -1, -1, 14, 15, -1, -1, -1, 19, 20, -1, -1, 23, -1, 25, -1, -1], "children_right": [8, 5, 4, -1, -1, 7, -1, -1, 18, 13, 12, -1, -1, 17, 16, -1, -1, -1, 22, 21, -1, -1, 24, -1, 26, -1, -1], "feature": [96, 96, 96, -2, -2, 96, -2, -2, 96, 96, 3, -2, -2, 96, 96, -2, -2, -2, 94, 93, -2, -2, 94, -2, 95, -2, -2], "threshold": [5.5, 2.5, 1.5, -2.0, -2.0, 3.5, -2.0, -2.0, 15.0, 8.5, 0.5, -2.0, -2.0, 12.0, 10.0, -2.0, -2.0, -2.0, 9.5, 4.5, -2.0, -2.0, 16.0, -2.0, 20.0, -2.0, -2.0], "value": [[[44.76086956521739]], [[66.29166666666667]], [[71.17647058823529]], [[77.0]], [[66.0]], [[54.42857142857143]], [[60.0]], [[47.0]], [[21.272727272727273]], [[27.733333333333334]], [[31.22222222222222]], [[29.0]], [[33.0]], [[22.5]], [[25.0]], [[26.0]], [[23.0]], [[20.0]], [[7.428571428571429]], [[15.0]], [[17.0]], [[13.0]], [[4.4]], [[8.0]], [[3.5]], [[2.0]], [[4.0]]], "impurity": [607.9210775047261, 91.37326388888778, 30.145328719723693, 0.0, 0.0, 41.3877551020405, 0.0, 0.0, 114.01652892561975, 23.528888888888787, 3.9506172839506917, 0.0, 0.0, 7.25, 2.0, 0.0, 0.0, 0.0, 26.816326530612244, 4.0, 0.0, 0.0, 3.8399999999999963, 0.0, 0.75, 0.0, 0.0]}, {"children_left": [1, 2, -1, 4, 5, -1, -1, -1, 9, 10, 11, -1, -1, 14, -1, -1, 17, 18, 19, -1, -1, 22, -1, -1, 25, 26, 27, -1, -1, -1, -1], "children_right": [8, 3, -1, 7, 6, -1, -1, -1, 16, 13, 12, -1, -1, 15, -1, -1, 24, 21, 20, -1, -1, 23, -1, -1, 30, 29, 28, -1, -1, -1, -1], "feature": [96, 96, -2, 96, 96, -2, -2, -2, 94, 96, 39, -2, -2, 96, -2, -2, 93, 94, 93, -2, -2, 94, -2, -2, 95, 37, 95, -2, -2, -2, -2], "threshold": [4.5, 1.5, -2.0, 3.5, 2.5, -2.0, -2.0, -2.0, 3.0, 7.0, 0.5, -2.0, -2.0, 8.5, -2.0, -2.0, 5.0, 5.0, 3.5, -2.0, -2.0, 7.0, -2.0, -2.0, 19.0, 0.5, 15.0, -2.0, -2.0, -2.0, -2.0], "value": [[[45.608695652173914]], [[67.20833333333333]], [[77.0]], [[60.214285714285715]], [[63.81818181818182]], [[66.0]], [[60.0]], [[47.0]], [[22.045454545454547]], [[35.25]], [[39.6]], [[39.0]], [[42.0]], [[28.0]], [[29.0]], [[26.0]], [[14.5]], [[19.5]], [[21.2]], [[20.0]], [[23.0]], [[16.666666666666668]], [[16.0]], [[17.0]], [[7.833333333333333]], [[9.75]], [[8.666666666666666]], [[9.0]], [[8.0]], [[13.0]], [[4.0]]], "impurity": [627.1077504725899, 100.08159722222354, 0.0, 54.168367346938794, 8.330578512396187, 0.0, 0.0, 0.0, 137.86157024793386, 33.1875, 1.4399999999998272, 0.0, 0.0, 2.0, 0.0, 0.0, 41.10714285714286, 6.25, 2.160000000000025, 0.0, 0.0, 0.2222222222221717, 0.0, 0.0, 9.805555555555564, 3.6875, 0.22222222222222854, 0.0, 0.0, 0.0, 0.0]}, {"children_left": [1, 2, 3, -1, -1, 6, -1, -1, 9, 10, 11, -1, -1, 14, -1, -1, 17, 18, 19, -1, -1, -1, 23, 24, -1, -1, 27, -1, -1], "children_right": [8, 5, 4, -1, -1, 7, -1, -1, 16, 13, 12, -1, -1, 15, -1, -1, 22, 21, 20, -1, -1, -1, 26, 25, -1, -1, 28, -1, -1], "feature": [96, 96, 96, -2, -2, 96, -2, -2, 93, 96, 94, -2, -2, 96, -2, -2, 93, 96, 96, -2, -2, -2, 95, 31, -2, -2, 33, -2, -2], "threshold": [4.5, 2.5, 1.5, -2.0, -2.0, 3.5, -2.0, -2.0, 2.5, 6.5, 1.5, -2.0, -2.0, 7.5, -2.0, -2.0, 8.0, 18.5, 15.0, -2.0, -2.0, -2.0, 16.5, 0.5, -2.0, -2.0, 0.5, -2.0, -2.0], "value": [[[49.5]], [[66.06896551724138]], [[72.05]], [[77.0]], [[66.0]], [[52.77777777777778]], [[60.0]], [[47.0]], [[21.235294117647058]], [[33.42857142857143]], [[40.5]], [[42.0]], [[39.0]], [[30.6]], [[33.0]], [[29.0]], [[12.7]], [[16.833333333333332]], [[17.6]], [[20.0]], [[17.0]], [[13.0]], [[6.5]], [[8.5]], [[9.0]], [[8.0]], [[4.5]], [[5.0]], [[4.0]]], "impurity": [588.1195652173915, 113.09869203329345, 29.94750000000022, 0.0, 0.0, 41.728395061728406, 0.0, 0.0, 131.2387543252595, 23.387755102040728, 2.25, 0.0, 0.0, 3.839999999999918, 0.0, 0.0, 29.810000000000002, 4.138888888888914, 1.4399999999999409, 0.0, 0.0, 0.0, 4.25, 0.25, 0.0, 0.0, 0.25, 0.0, 0.0]}, {"children_left": [1, 2, 3, -1, 5, -1, -1, -1, 9, 10, 11, -1, -1, 14, 15, -1, -1, -1, 19, 20, 21, -1, -1, -1, 25, 26, -1, -1, 29, -1, -1], "children_right": [8, 7, 4, -1, 6, -1, -1, -1, 18, 13, 12, -1, -1, 17, 16, -1, -1, -1, 24, 23, 22, -1, -1, -1, 28, 27, -1, -1, 30, -1, -1], "feature": [96, 96, 96, -2, 79, -2, -2, -2, 94, 96, 95, -2, -2, 82, 93, -2, -2, -2, 95, 96, 80, -2, -2, -2, 95, 96, -2, -2, 94, -2, -2], "threshold": [5.0, 3.5, 1.5, -2.0, 0.5, -2.0, -2.0, -2.0, 5.5, 7.5, 4.0, -2.0, -2.0, 0.5, 3.0, -2.0, -2.0, -2.0, 13.0, 19.5, 0.5, -2.0, -2.0, -2.0, 16.5, 36.5, -2.0, -2.0, 23.0, -2.0, -2.0], "value": [[[40.369565217391305]], [[62.130434782608695]], [[71.85714285714286]], [[77.0]], [[65.0]], [[66.0]], [[60.0]], [[47.0]], [[18.608695652173914]], [[27.5]], [[37.0]], [[39.0]], [[33.0]], [[24.333333333333332]], [[26.5]], [[29.0]], [[26.0]], [[20.0]], [[8.909090909090908]], [[15.5]], [[16.333333333333332]], [[16.0]], [[17.0]], [[13.0]], [[5.142857142857143]], [[8.5]], [[9.0]], [[8.0]], [[3.8]], [[5.0]], [[2.0]]], "impurity": [619.0590737240077, 169.93950850661622, 37.40816326530603, 0.0, 5.0, 0.0, 0.0, 0.0, 121.10775047258971, 39.75, 8.0, 0.0, 0.0, 10.222222222222285, 1.25, 0.0, 0.0, 0.0, 29.537190082644642, 2.25, 0.22222222222228538, 0.0, 0.0, 0.0, 6.12244897959183, 0.25, 0.0, 0.0, 2.160000000000002, 0.0, 0.0]}, {"children_left": [1, 2, 3, -1, 5, -1, -1, -1, 9, 10, 11, 12, -1, -1, -1, 16, -1, -1, 19, 20, -1, -1, 23, -1, 25, -1, -1], "children_right": [8, 7, 4, -1, 6, -1, -1, -1, 18, 15, 14, 13, -1, -1, -1, 17, -1, -1, 22, 21, -1, -1, 24, -1, 26, -1, -1], "feature": [96, 96, 96, -2, 96, -2, -2, -2, 95, 96, 96, 96, -2, -2, -2, 94, -2, -2, 93, 80, -2, -2, 95, -2, 94, -2, -2], "threshold": [4.5, 3.5, 1.5, -2.0, 2.5, -2.0, -2.0, -2.0, 5.5, 7.5, 6.5, 5.5, -2.0, -2.0, -2.0, 4.5, -2.0, -2.0, 8.0, 0.5, -2.0, -2.0, 16.5, -2.0, 17.5, -2.0, -2.0], "value": [[[48.95652173913044]], [[63.5]], [[68.52173913043478]], [[77.0]], [[64.0]], [[66.0]], [[60.0]], [[47.0]], [[21.6875]], [[30.444444444444443]], [[38.25]], [[40.0]], [[42.0]], [[39.0]], [[33.0]], [[24.2]], [[23.0]], [[29.0]], [[10.428571428571429]], [[14.0]], [[13.0]], [[17.0]], [[5.666666666666667]], [[8.0]], [[4.5]], [[5.0]], [[4.0]]], "impurity": [520.8241965973534, 116.25, 43.553875236294516, 0.0, 8.0, 0.0, 0.0, 0.0, 139.21484375, 56.69135802469145, 10.6875, 2.0, 0.0, 0.0, 0.0, 5.759999999999991, 0.0, 0.0, 19.959183673469397, 3.0, 0.0, 0.0, 2.8888888888888857, 0.0, 0.25, 0.0, 0.0]}, {"children_left": [1, 2, -1, 4, -1, -1, 7, 8, 9, -1, -1, 12, -1, 14, -1, -1, 17, 18, 19, -1, -1, -1, 23, -1, -1], "children_right": [6, 3, -1, 5, -1, -1, 16, 11, 10, -1, -1, 13, -1, 15, -1, -1, 22, 21, 20, -1, -1, -1, 24, -1, -1], "feature": [96, 96, -2, 96, -2, -2, 96, 96, 95, -2, -2, 96, -2, 30, -2, -2, 96, 95, 96, -2, -2, -2, 33, -2, -2], "threshold": [3.5, 1.5, -2.0, 2.5, -2.0, -2.0, 8.5, 5.5, 2.0, -2.0, -2.0, 6.5, -2.0, 0.5, -2.0, -2.0, 26.5, 5.0, 10.0, -2.0, -2.0, -2.0, 0.5, -2.0, -2.0], "value": [[[49.78260869565217]], [[70.73913043478261]], [[77.0]], [[65.0]], [[66.0]], [[60.0]], [[28.82608695652174]], [[40.15384615384615]], [[46.166666666666664]], [[47.0]], [[42.0]], [[35.0]], [[39.0]], [[32.0]], [[33.0]], [[29.0]], [[14.1]], [[21.2]], [[24.0]], [[26.0]], [[23.0]], [[17.0]], [[7.0]], [[9.0]], [[4.0]]], "impurity": [566.1701323251418, 38.5406427221169, 0.0, 5.0, 0.0, 0.0, 215.44801512287336, 39.976331360946915, 3.4722222222226264, 0.0, 0.0, 13.71428571428578, 0.0, 3.0, 0.0, 0.0, 59.889999999999986, 12.95999999999998, 2.0, 0.0, 0.0, 0.0, 6.0, 0.0, 0.0]}, {"children_left": [1, 2, 3, -1, 5, -1, -1, 8, -1, -1, 11, 12, 13, -1, -1, -1, 17, 18, -1, -1, -1], "children_right": [10, 7, 4, -1, 6, -1, -1, 9, -1, -1, 16, 15, 14, -1, -1, -1, 20, 19, -1, -1, -1], "feature": [96, 96, 96, -2, 96, -2, -2, 96, -2, -2, 96, 96, 96, -2, -2, -2, 89, 93, -2, -2, -2], "threshold": [6.0, 3.5, 1.5, -2.0, 2.5, -2.0, -2.0, 4.5, -2.0, -2.0, 16.0, 10.5, 7.5, -2.0, -2.0, -2.0, 0.5, 24.0, -2.0, -2.0, -2.0], "value": [[[51.23913043478261]], [[62.61764705882353]], [[69.33333333333333]], [[77.0]], [[63.857142857142854]], [[66.0]], [[60.0]], [[46.5]], [[47.0]], [[42.0]], [[19.0]], [[28.285714285714285]], [[29.666666666666668]], [[33.0]], [[29.0]], [[20.0]], [[6.0]], [[3.5]], [[8.0]], [[2.0]], [[16.0]]], "impurity": [508.57325141776937, 141.9420415224913, 46.805555555556566, 0.0, 8.265306122449147, 0.0, 0.0, 2.25, 0.0, 0.0, 141.16666666666669, 13.346938775510239, 2.2222222222221717, 0.0, 0.0, 0.0, 30.400000000000006, 6.75, 0.0, 0.0, 0.0]}, {"children_left": [1, 2, -1, 4, -1, -1, 7, 8, -1, 10, -1, 12, -1, -1, 15, 16, 17, -1, -1, -1, 21, -1, -1], "children_right": [6, 3, -1, 5, -1, -1, 14, 9, -1, 11, -1, 13, -1, -1, 20, 19, 18, -1, -1, -1, 22, -1, -1], "feature": [96, 96, -2, 96, -2, -2, 96, 93, -2, 96, -2, 94, -2, -2, 96, 93, 93, -2, -2, -2, 64, -2, -2], "threshold": [3.5, 1.5, -2.0, 2.5, -2.0, -2.0, 9.5, 0.5, -2.0, 4.5, -2.0, 1.5, -2.0, -2.0, 28.5, 5.0, 3.5, -2.0, -2.0, -2.0, 0.5, -2.0, -2.0], "value": [[[51.52173913043478]], [[68.96]], [[77.0]], [[63.6]], [[66.0]], [[60.0]], [[30.761904761904763]], [[42.46153846153846]], [[29.0]], [[43.583333333333336]], [[47.0]], [[41.142857142857146]], [[42.0]], [[39.0]], [[11.75]], [[16.4]], [[21.5]], [[20.0]], [[23.0]], [[13.0]], [[4.0]], [[8.0]], [[2.0]]], "impurity": [505.2930056710775, 48.27840000000106, 0.0, 8.639999999999873, 0.0, 0.0, 256.37188208616783, 23.78698224852087, 0.0, 9.409722222222172, 0.0, 1.8367346938773608, 0.0, 0.0, 50.4375, 18.24000000000001, 2.25, 0.0, 0.0, 0.0, 8.0, 0.0, 0.0]}, {"children_left": [1, 2, 3, -1, 5, -1, -1, -1, 9, 10, 11, -1, -1, -1, 15, 16, 17, 18, -1, -1, -1, -1, 23, 24, -1, -1, 27, -1, -1], "children_right": [8, 7, 4, -1, 6, -1, -1, -1, 14, 13, 12, -1, -1, -1, 22, 21, 20, 19, -1, -1, -1, -1, 26, 25, -1, -1, 28, -1, -1], "feature": [96, 96, 96, -2, 96, -2, -2, -2, 96, 96, 96, -2, -2, -2, 95, 82, 37, 80, -2, -2, -2, -2, 94, 95, -2, -2, 96, -2, -2], "threshold": [4.5, 3.5, 1.5, -2.0, 2.5, -2.0, -2.0, -2.0, 10.5, 7.0, 5.5, -2.0, -2.0, -2.0, 13.0, 0.5, 0.5, 0.5, -2.0, -2.0, -2.0, -2.0, 16.5, 15.0, -2.0, -2.0, 76.5, -2.0, -2.0], "value": [[[46.45652173913044]], [[66.3076923076923]], [[68.82608695652173]], [[77.0]], [[65.25]], [[66.0]], [[60.0]], [[47.0]], [[20.65]], [[36.166666666666664]], [[39.75]], [[42.0]], [[39.0]], [[29.0]], [[14.0]], [[17.3]], [[15.5]], [[16.75]], [[16.0]], [[17.0]], [[13.0]], [[20.0]], [[5.75]], [[8.5]], [[9.0]], [[8.0]], [[3.0]], [[4.0]], [[2.0]]], "impurity": [614.595935727788, 76.90532544378766, 31.969754253308565, 0.0, 3.9375, 0.0, 0.0, 0.0, 135.32750000000004, 26.805555555555657, 1.6875, 0.0, 0.0, 0.0, 34.428571428571416, 6.810000000000002, 3.25, 0.1875, 0.0, 0.0, 0.0, 0.0, 8.1875, 0.25, 0.0, 0.0, 1.0, 0.0, 0.0]}, {"children_left": [1, 2, -1, 4, -1, -1, 7, 8, 9, -1, 11, -1, -1, 14, -1, -1, 17, 18, -1, 20, 21, -1, -1, -1, 25, 26, -1, -1, -1], "children_right": [6, 3, -1, 5, -1, -1, 16, 13, 10, -1, 12, -1, -1, 15, -1, -1, 24, 19, -1, 23, 22, -1, -1, -1, 28, 27, -1, -1, -1], "feature": [96, 96, -2, 96, -2, -2, 96, 96, 96, -2, 39, -2, -2, 96, -2, -2, 93, 96, -2, 96, 80, -2, -2, -2, 96, 94, -2, -2, -2], "threshold": [3.5, 1.5, -2.0, 2.5, -2.0, -2.0, 10.5, 6.5, 4.5, -2.0, 0.5, -2.0, -2.0, 7.5, -2.0, -2.0, 8.0, 15.0, -2.0, 19.5, 0.5, -2.0, -2.0, -2.0, 47.5, 11.5, -2.0, -2.0, -2.0], "value": [[[46.630434782608695]], [[72.11764705882354]], [[77.0]], [[65.14285714285714]], [[66.0]], [[60.0]], [[31.689655172413794]], [[39.9]], [[44.0]], [[47.0]], [[40.0]], [[39.0]], [[42.0]], [[30.333333333333332]], [[33.0]], [[29.0]], [[13.444444444444445]], [[16.5]], [[20.0]], [[15.8]], [[16.5]], [[16.0]], [[17.0]], [[13.0]], [[7.333333333333333]], [[8.5]], [[8.0]], [[9.0]], [[5.0]]], "impurity": [514.3199432892252, 35.86851211072553, 0.0, 4.408163265306939, 0.0, 0.0, 190.76575505350775, 49.289999999999964, 12.85714285714289, 0.0, 2.0, 0.0, 0.0, 3.555555555555543, 0.0, 0.0, 22.46913580246914, 4.25, 0.0, 2.1599999999999966, 0.25, 0.0, 0.0, 0.0, 2.888888888888893, 0.25, 0.0, 0.0, 0.0]}, {"children_left": [1, 2, 3, -1, 5, -1, -1, 8, -1, -1, 11, 12, -1, 14, 15, -1, -1, -1, 19, -1, 21, -1, 23, -1, -1], "children_right": [10, 7, 4, -1, 6, -1, -1, 9, -1, -1, 18, 13, -1, 17, 16, -1, -1, -1, 20, -1, 22, -1, 24, -1, -1], "feature": [96, 96, 96, -2, 96, -2, -2, 96, -2, -2, 93, 93, -2, 96, 19, -2, -2, -2, 95, -2, 93, -2, 96, -2, -2], "threshold": [6.5, 3.5, 1.5, -2.0, 2.5, -2.0, -2.0, 4.5, -2.0, -2.0, 5.0, 2.5, -2.0, 15.0, 0.5, -2.0, -2.0, -2.0, 11.5, -2.0, 16.0, -2.0, 61.5, -2.0, -2.0], "value": [[[52.47826086956522]], [[64.11428571428571]], [[70.61538461538461]], [[77.0]], [[65.14285714285714]], [[66.0]], [[60.0]], [[45.333333333333336]], [[47.0]], [[42.0]], [[15.454545454545455]], [[22.5]], [[29.0]], [[19.25]], [[21.5]], [[20.0]], [[23.0]], [[17.0]], [[7.0]], [[13.0]], [[5.5]], [[8.0]], [[4.666666666666667]], [[5.0]], [[4.0]]], "impurity": [564.5973534971645, 151.24408163265252, 37.313609467456445, 0.0, 4.408163265306939, 0.0, 0.0, 5.555555555555202, 0.0, 0.0, 78.24793388429748, 25.25, 0.0, 6.1875, 2.25, 0.0, 0.0, 0.0, 10.799999999999997, 0.0, 2.25, 0.0, 0.22222222222221788, 0.0, 0.0]}, {"children_left": [1, 2, 3, -1, -1, -1, 7, 8, 9, -1, -1, 12, 13, -1, -1, -1, 17, 18, -1, -1, 21, 22, -1, -1, -1], "children_right": [6, 5, 4, -1, -1, -1, 16, 11, 10, -1, -1, 15, 14, -1, -1, -1, 20, 19, -1, -1, 24, 23, -1, -1, -1], "feature": [96, 96, 96, -2, -2, -2, 94, 96, 39, -2, -2, 19, 47, -2, -2, -2, 93, 37, -2, -2, 94, 59, -2, -2, -2], "threshold": [4.5, 3.0, 1.5, -2.0, -2.0, -2.0, 5.0, 7.0, 0.5, -2.0, -2.0, 0.5, 0.5, -2.0, -2.0, -2.0, 8.0, 0.5, -2.0, -2.0, 22.0, 0.5, -2.0, -2.0, -2.0], "value": [[[50.108695652173914]], [[65.13333333333334]], [[69.66666666666667]], [[77.0]], [[66.0]], [[47.0]], [[21.9375]], [[29.0]], [[40.0]], [[39.0]], [[42.0]], [[24.285714285714285]], [[27.5]], [[26.0]], [[29.0]], [[23.0]], [[10.166666666666666]], [[14.0]], [[16.0]], [[13.0]], [[6.333333333333333]], [[8.5]], [[8.0]], [[9.0]], [[2.0]]], "impurity": [534.618620037807, 103.7155555555546, 26.888888888887777, 0.0, 0.0, 0.0, 125.68359375, 55.799999999999955, 2.0, 0.0, 0.0, 4.775510204081684, 2.25, 0.0, 0.0, 0.0, 20.47222222222223, 2.0, 0.0, 0.0, 9.555555555555557, 0.25, 0.0, 0.0, 0.0]}, {"children_left": [1, 2, 3, -1, 5, -1, -1, 8, -1, -1, 11, 12, -1, -1, 15, 16, -1, -1, -1], "children_right": [10, 7, 4, -1, 6, -1, -1, 9, -1, -1, 14, 13, -1, -1, 18, 17, -1, -1, -1], "feature": [94, 96, 96, -2, 96, -2, -2, 96, -2, -2, 93, 37, -2, -2, 93, 94, -2, -2, -2], "threshold": [4.5, 3.5, 1.5, -2.0, 2.5, -2.0, -2.0, 5.0, -2.0, -2.0, 8.0, 0.5, -2.0, -2.0, 18.5, 11.5, -2.0, -2.0, -2.0], "value": [[[49.0]], [[61.05714285714286]], [[71.95238095238095]], [[77.0]], [[63.75]], [[66.0]], [[60.0]], [[44.714285714285715]], [[47.0]], [[39.0]], [[10.636363636363637]], [[14.8]], [[16.0]], [[13.0]], [[7.166666666666667]], [[8.25]], [[8.0]], [[9.0]], [[5.0]]], "impurity": [626.391304347826, 210.05387755102038, 44.616780045351334, 0.0, 8.4375, 0.0, 0.0, 13.061224489795677, 0.0, 0.0, 16.77685950413222, 2.159999999999968, 0.0, 0.0, 2.4722222222222214, 0.1875, 0.0, 0.0, 0.0]}, {"children_left": [1, 2, 3, -1, -1, 6, -1, -1, 9, 10, 11, -1, -1, 14, 15, -1, -1, 18, -1, -1, 21, 22, -1, -1, 25, 26, -1, -1, 29, -1, -1], "children_right": [8, 5, 4, -1, -1, 7, -1, -1, 20, 13, 12, -1, -1, 17, 16, -1, -1, 19, -1, -1, 24, 23, -1, -1, 28, 27, -1, -1, 30, -1, -1], "feature": [96, 96, 96, -2, -2, 96, -2, -2, 96, 96, 39, -2, -2, 93, 47, -2, -2, 19, -2, -2, 96, 37, -2, -2, 96, 94, -2, -2, 93, -2, -2], "threshold": [4.5, 2.5, 1.5, -2.0, -2.0, 3.5, -2.0, -2.0, 12.0, 6.5, 0.5, -2.0, -2.0, 2.5, 0.5, -2.0, -2.0, 0.5, -2.0, -2.0, 28.0, 0.5, -2.0, -2.0, 47.5, 11.5, -2.0, -2.0, 32.5, -2.0, -2.0], "value": [[[46.15217391304348]], [[65.96153846153847]], [[71.5]], [[77.0]], [[66.0]], [[53.5]], [[60.0]], [[47.0]], [[20.4]], [[33.22222222222222]], [[40.5]], [[39.0]], [[42.0]], [[27.4]], [[31.0]], [[33.0]], [[29.0]], [[25.0]], [[26.0]], [[23.0]], [[9.909090909090908]], [[16.5]], [[20.0]], [[13.0]], [[6.142857142857143]], [[8.5]], [[8.0]], [[9.0]], [[3.0]], [[5.0]], [[2.0]]], "impurity": [644.8246691871459, 102.9600591715971, 30.25, 0.0, 0.0, 42.25, 0.0, 0.0, 175.94000000000005, 49.728395061728406, 2.25, 0.0, 0.0, 11.440000000000168, 4.0, 0.0, 0.0, 2.0, 0.0, 0.0, 34.628099173553736, 12.25, 0.0, 0.0, 8.408163265306122, 0.25, 0.0, 0.0, 2.0, 0.0, 0.0]}, {"children_left": [1, 2, -1, 4, 5, -1, -1, -1, 9, -1, 11, 12, -1, -1, 15, 16, 17, -1, -1, -1, 21, -1, -1], "children_right": [8, 3, -1, 7, 6, -1, -1, -1, 10, -1, 14, 13, -1, -1, 20, 19, 18, -1, -1, -1, 22, -1, -1], "feature": [96, 96, -2, 77, 96, -2, -2, -2, 96, -2, 96, 44, -2, -2, 96, 93, 80, -2, -2, -2, 96, -2, -2], "threshold": [5.0, 1.5, -2.0, 0.5, 2.5, -2.0, -2.0, -2.0, 7.5, -2.0, 14.0, 0.5, -2.0, -2.0, 28.5, 4.5, 0.5, -2.0, -2.0, -2.0, 47.5, -2.0, -2.0], "value": [[[50.34782608695652]], [[68.25]], [[77.0]], [[61.6875]], [[65.07692307692308]], [[66.0]], [[60.0]], [[47.0]], [[22.5]], [[39.0]], [[17.785714285714285]], [[24.5]], [[23.0]], [[26.0]], [[12.75]], [[14.833333333333334]], [[16.666666666666668]], [[16.0]], [[17.0]], [[13.0]], [[6.5]], [[8.0]], [[5.0]]], "impurity": [595.9659735349715, 88.04464285714312, 0.0, 53.58984375, 4.686390532543555, 0.0, 0.0, 0.0, 112.02777777777783, 0.0, 44.02551020408163, 2.25, 0.0, 0.0, 16.1875, 3.4722222222222, 0.2222222222221717, 0.0, 0.0, 0.0, 2.25, 0.0, 0.0]}, {"children_left": [1, 2, 3, -1, -1, 6, 7, -1, -1, -1, 11, 12, 13, -1, -1, 16, 17, -1, -1, 20, -1, -1, 23, 24, -1, -1, 27, -1, 29, 30, -1, -1, -1], "children_right": [10, 5, 4, -1, -1, 9, 8, -1, -1, -1, 22, 15, 14, -1, -1, 19, 18, -1, -1, 21, -1, -1, 26, 25, -1, -1, 28, -1, 32, 31, -1, -1, -1], "feature": [96, 96, 96, -2, -2, 79, 95, -2, -2, -2, 94, 96, 93, -2, -2, 96, 95, -2, -2, 93, -2, -2, 94, 80, -2, -2, 96, -2, 64, 45, -2, -2, -2], "threshold": [5.5, 2.5, 1.5, -2.0, -2.0, 0.5, 2.5, -2.0, -2.0, -2.0, 6.0, 7.5, 2.0, -2.0, -2.0, 10.0, 2.5, -2.0, -2.0, 3.5, -2.0, -2.0, 9.5, 0.5, -2.0, -2.0, 47.5, -2.0, 0.5, 0.5, -2.0, -2.0, -2.0], "value": [[[42.91304347826087]], [[64.07692307692308]], [[74.25]], [[77.0]], [[66.0]], [[47.8]], [[46.44444444444444]], [[47.0]], [[42.0]], [[60.0]], [[15.4]], [[29.0]], [[35.0]], [[33.0]], [[39.0]], [[24.5]], [[27.5]], [[29.0]], [[26.0]], [[21.5]], [[20.0]], [[23.0]], [[8.076923076923077]], [[13.8]], [[13.0]], [[17.0]], [[4.5]], [[8.0]], [[4.0]], [[4.333333333333333]], [[4.0]], [[5.0]], [[2.0]]], "impurity": [743.2533081285444, 186.76331360946733, 22.6875, 0.0, 0.0, 18.76000000000022, 2.4691358024692818, 0.0, 0.0, 0.0, 127.44, 36.85714285714289, 8.0, 0.0, 0.0, 11.25, 2.25, 0.0, 0.0, 2.25, 0.0, 0.0, 22.994082840236686, 2.559999999999974, 0.0, 0.0, 2.5, 0.0, 0.8571428571428577, 0.22222222222222499, 0.0, 0.0, 0.0]}, {"children_left": [1, 2, 3, -1, -1, 6, -1, -1, 9, 10, -1, -1, 13, 14, -1, -1, 17, 18, -1, -1, -1], "children_right": [8, 5, 4, -1, -1, 7, -1, -1, 12, 11, -1, -1, 16, 15, -1, -1, 20, 19, -1, -1, -1], "feature": [93, 96, 96, -2, -2, 96, -2, -2, 93, 80, -2, -2, 93, 96, -2, -2, 96, 45, -2, -2, -2], "threshold": [2.5, 2.5, 1.5, -2.0, -2.0, 3.5, -2.0, -2.0, 6.5, 0.5, -2.0, -2.0, 16.0, 36.5, -2.0, -2.0, 76.5, 0.5, -2.0, -2.0, -2.0], "value": [[[54.130434782608695]], [[67.91428571428571]], [[74.25]], [[77.0]], [[66.0]], [[54.09090909090909]], [[60.0]], [[47.0]], [[10.272727272727273]], [[19.25]], [[20.0]], [[17.0]], [[5.142857142857143]], [[8.5]], [[9.0]], [[8.0]], [[3.8]], [[4.25]], [[4.0]], [[5.0]], [[2.0]]], "impurity": [704.9829867674857, 116.3069387755113, 22.6875, 0.0, 0.0, 41.90082644628046, 0.0, 0.0, 50.01652892561981, 1.6875, 0.0, 0.0, 5.265306122448976, 0.25, 0.0, 0.0, 0.9600000000000009, 0.1875, 0.0, 0.0, 0.0]}, {"children_left": [1, 2, -1, 4, -1, -1, 7, 8, 9, -1, 11, -1, -1, 14, 15, -1, -1, -1, 19, 20, -1, 22, -1, -1, 25, -1, -1], "children_right": [6, 3, -1, 5, -1, -1, 18, 13, 10, -1, 12, -1, -1, 17, 16, -1, -1, -1, 24, 21, -1, 23, -1, -1, 26, -1, -1], "feature": [96, 96, -2, 96, -2, -2, 96, 96, 96, -2, 96, -2, -2, 3, 94, -2, -2, -2, 94, 95, -2, 89, -2, -2, 45, -2, -2], "threshold": [3.5, 1.5, -2.0, 2.5, -2.0, -2.0, 10.0, 6.5, 4.5, -2.0, 5.5, -2.0, -2.0, 0.5, 3.0, -2.0, -2.0, -2.0, 10.5, 5.0, -2.0, 0.5, -2.0, -2.0, 0.5, -2.0, -2.0], "value": [[[50.04347826086956]], [[68.625]], [[77.0]], [[63.6]], [[66.0]], [[60.0]], [[29.772727272727273]], [[39.06666666666667]], [[43.6]], [[47.0]], [[40.2]], [[42.0]], [[39.0]], [[30.0]], [[28.0]], [[26.0]], [[29.0]], [[33.0]], [[9.857142857142858]], [[17.333333333333332]], [[23.0]], [[14.5]], [[13.0]], [[16.0]], [[4.25]], [[4.0]], [[5.0]]], "impurity": [514.4328922495274, 47.484375, 0.0, 8.639999999999873, 0.0, 0.0, 236.2665289256198, 51.92888888888865, 12.639999999999873, 0.0, 2.1599999999998545, 0.0, 0.0, 7.2000000000000455, 2.0, 0.0, 0.0, 0.0, 49.55102040816327, 17.5555555555556, 0.0, 2.25, 0.0, 0.0, 0.1875, 0.0, 0.0]}, {"children_left": [1, 2, 3, -1, 5, -1, -1, 8, -1, 10, -1, -1, 13, 14, 15, -1, -1, 18, 19, -1, -1, -1, 23, 24, -1, -1, 27, 28, -1, -1, -1], "children_right": [12, 7, 4, -1, 6, -1, -1, 9, -1, 11, -1, -1, 22, 17, 16, -1, -1, 21, 20, -1, -1, -1, 26, 25, -1, -1, 30, 29, -1, -1, -1], "feature": [96, 96, 96, -2, 96, -2, -2, 96, -2, 36, -2, -2, 93, 94, 82, -2, -2, 37, 96, -2, -2, -2, 96, 59, -2, -2, 93, 95, -2, -2, -2], "threshold": [7.5, 3.5, 1.5, -2.0, 2.5, -2.0, -2.0, 4.5, -2.0, 0.5, -2.0, -2.0, 8.0, 5.0, 0.5, -2.0, -2.0, 0.5, 18.0, -2.0, -2.0, -2.0, 47.5, 0.5, -2.0, -2.0, 32.5, 19.5, -2.0, -2.0, -2.0], "value": [[[40.21739130434783]], [[60.18518518518518]], [[69.17647058823529]], [[77.0]], [[64.9090909090909]], [[66.0]], [[60.0]], [[44.9]], [[47.0]], [[40.0]], [[42.0]], [[39.0]], [[11.842105263157896]], [[17.7]], [[23.0]], [[26.0]], [[20.0]], [[14.166666666666666]], [[16.5]], [[17.0]], [[16.0]], [[13.0]], [[5.333333333333333]], [[8.666666666666666]], [[8.0]], [[9.0]], [[3.6666666666666665]], [[4.5]], [[5.0]], [[4.0]], [[2.0]]], "impurity": [685.5179584120981, 164.66941015089196, 36.85121107266514, 0.0, 5.355371900826867, 0.0, 0.0, 10.890000000000327, 0.0, 2.0, 0.0, 0.0, 53.92243767313019, 24.010000000000048, 9.0, 0.0, 0.0, 2.8055555555555713, 0.25, 0.0, 0.0, 0.0, 6.666666666666671, 0.22222222222222854, 0.0, 0.0, 1.5555555555555571, 0.25, 0.0, 0.0, 0.0]}, {"children_left": [1, 2, -1, 4, -1, -1, 7, 8, -1, 10, -1, -1, 13, 14, 15, -1, -1, 18, -1, -1, 21, -1, -1], "children_right": [6, 3, -1, 5, -1, -1, 12, 9, -1, 11, -1, -1, 20, 17, 16, -1, -1, 19, -1, -1, 22, -1, -1], "feature": [96, 96, -2, 96, -2, -2, 96, 93, -2, 39, -2, -2, 93, 94, 95, -2, -2, 95, -2, -2, 33, -2, -2], "threshold": [4.0, 1.5, -2.0, 2.5, -2.0, -2.0, 8.5, 0.5, -2.0, 0.5, -2.0, -2.0, 14.0, 5.5, 5.0, -2.0, -2.0, 6.5, -2.0, -2.0, 0.5, -2.0, -2.0], "value": [[[56.34782608695652]], [[72.03448275862068]], [[77.0]], [[65.0]], [[66.0]], [[60.0]], [[29.58823529411765]], [[39.8]], [[29.0]], [[41.0]], [[39.0]], [[42.0]], [[15.0]], [[19.2]], [[22.0]], [[26.0]], [[20.0]], [[15.0]], [[17.0]], [[13.0]], [[4.5]], [[5.0]], [[4.0]]], "impurity": [510.05293005671047, 36.99881093935892, 0.0, 5.0, 0.0, 0.0, 181.1833910034602, 14.760000000000218, 0.0, 2.0, 0.0, 0.0, 57.14285714285717, 18.160000000000025, 8.0, 0.0, 0.0, 4.0, 0.0, 0.0, 0.25, 0.0, 0.0]}, {"children_left": [1, 2, 3, -1, 5, -1, -1, -1, 9, 10, 11, -1, -1, 14, -1, -1, 17, 18, 19, -1, -1, -1, 23, 24, -1, -1, -1], "children_right": [8, 7, 4, -1, 6, -1, -1, -1, 16, 13, 12, -1, -1, 15, -1, -1, 22, 21, 20, -1, -1, -1, 26, 25, -1, -1, -1], "feature": [96, 96, 96, -2, 96, -2, -2, -2, 96, 95, 96, -2, -2, 95, -2, -2, 94, 37, 94, -2, -2, -2, 96, 95, -2, -2, -2], "threshold": [4.5, 3.5, 1.5, -2.0, 2.5, -2.0, -2.0, -2.0, 11.0, 3.5, 5.5, -2.0, -2.0, 6.0, -2.0, -2.0, 9.5, 0.5, 6.0, -2.0, -2.0, -2.0, 51.0, 15.0, -2.0, -2.0, -2.0], "value": [[[49.73913043478261]], [[64.83333333333333]], [[70.26086956521739]], [[77.0]], [[65.07692307692308]], [[66.0]], [[60.0]], [[47.0]], [[21.4375]], [[34.714285714285715]], [[39.75]], [[42.0]], [[39.0]], [[28.0]], [[26.0]], [[29.0]], [[11.11111111111111]], [[15.75]], [[18.5]], [[20.0]], [[17.0]], [[13.0]], [[7.4]], [[8.25]], [[9.0]], [[8.0]], [[4.0]]], "impurity": [566.6710775047259, 125.60555555555584, 37.58412098298686, 0.0, 4.686390532543555, 0.0, 0.0, 0.0, 165.49609375, 35.63265306122457, 1.6875, 0.0, 0.0, 2.0, 0.0, 0.0, 22.765432098765444, 8.6875, 2.25, 0.0, 0.0, 0.0, 3.039999999999992, 0.1875, 0.0, 0.0, 0.0]}, {"children_left": [1, 2, 3, -1, -1, 6, -1, -1, 9, 10, -1, 12, 13, -1, -1, 16, -1, -1, 19, 20, -1, -1, 23, 24, -1, -1, 27, 28, -1, -1, -1], "children_right": [8, 5, 4, -1, -1, 7, -1, -1, 18, 11, -1, 15, 14, -1, -1, 17, -1, -1, 22, 21, -1, -1, 26, 25, -1, -1, 30, 29, -1, -1, -1], "feature": [96, 96, 96, -2, -2, 95, -2, -2, 94, 96, -2, 96, 95, -2, -2, 19, -2, -2, 94, 89, -2, -2, 95, 31, -2, -2, 64, 94, -2, -2, -2], "threshold": [5.0, 2.5, 1.5, -2.0, -2.0, 0.5, -2.0, -2.0, 5.5, 7.0, -2.0, 10.0, 2.5, -2.0, -2.0, 0.5, -2.0, -2.0, 9.0, 0.5, -2.0, -2.0, 16.5, 0.5, -2.0, -2.0, 0.5, 17.5, -2.0, -2.0, -2.0], "value": [[[44.630434782608695]], [[67.52]], [[73.33333333333333]], [[77.0]], [[66.0]], [[52.57142857142857]], [[60.0]], [[47.0]], [[17.38095238095238]], [[27.7]], [[39.0]], [[24.875]], [[27.2]], [[29.0]], [[26.0]], [[21.0]], [[20.0]], [[23.0]], [[8.0]], [[14.0]], [[13.0]], [[16.0]], [[5.75]], [[8.666666666666666]], [[9.0]], [[8.0]], [[4.0]], [[4.5]], [[5.0]], [[4.0]], [[2.0]]], "impurity": [745.232986767486, 117.84960000000046, 26.888888888889596, 0.0, 0.0, 41.38775510204141, 0.0, 0.0, 125.85487528344675, 40.81000000000006, 0.0, 11.109375, 2.160000000000082, 0.0, 0.0, 2.0, 0.0, 0.0, 18.36363636363636, 2.0, 0.0, 0.0, 5.9375, 0.22222222222222854, 0.0, 0.0, 1.1999999999999993, 0.25, 0.0, 0.0, 0.0]}, {"children_left": [1, 2, 3, -1, 5, -1, -1, 8, -1, 10, -1, -1, 13, 14, -1, -1, 17, 18, -1, -1, 21, 22, -1, -1, -1], "children_right": [12, 7, 4, -1, 6, -1, -1, 9, -1, 11, -1, -1, 16, 15, -1, -1, 20, 19, -1, -1, 24, 23, -1, -1, -1], "feature": [96, 96, 96, -2, 23, -2, -2, 96, -2, 96, -2, -2, 95, 3, -2, -2, 95, 93, -2, -2, 96, 96, -2, -2, -2], "threshold": [6.5, 3.5, 1.5, -2.0, 0.5, -2.0, -2.0, 4.5, -2.0, 5.5, -2.0, -2.0, 6.0, 0.5, -2.0, -2.0, 13.0, 3.5, -2.0, -2.0, 51.0, 36.5, -2.0, -2.0, -2.0], "value": [[[49.54347826086956]], [[62.35294117647059]], [[69.0]], [[77.0]], [[64.5]], [[66.0]], [[60.0]], [[43.888888888888886]], [[47.0]], [[41.4]], [[42.0]], [[39.0]], [[13.25]], [[26.333333333333332]], [[23.0]], [[33.0]], [[8.88888888888889]], [[14.0]], [[16.0]], [[13.0]], [[6.333333333333333]], [[8.666666666666666]], [[9.0]], [[8.0]], [[4.0]]], "impurity": [598.9437618147449, 154.64013840830467, 40.31999999999971, 0.0, 6.75, 0.0, 0.0, 8.543209876543642, 0.0, 1.440000000000282, 0.0, 0.0, 75.6875, 22.222222222222285, 0.0, 0.0, 17.432098765432087, 2.0, 0.0, 0.0, 5.555555555555557, 0.22222222222222854, 0.0, 0.0, 0.0]}, {"children_left": [1, 2, -1, 4, -1, -1, 7, 8, 9, -1, -1, 12, -1, -1, 15, 16, -1, -1, 19, 20, -1, -1, 23, -1, -1], "children_right": [6, 3, -1, 5, -1, -1, 14, 11, 10, -1, -1, 13, -1, -1, 18, 17, -1, -1, 22, 21, -1, -1, 24, -1, -1], "feature": [96, 96, -2, 96, -2, -2, 96, 96, 39, -2, -2, 96, -2, -2, 95, 93, -2, -2, 96, 95, -2, -2, 45, -2, -2], "threshold": [3.5, 1.5, -2.0, 2.5, -2.0, -2.0, 13.5, 6.0, 0.5, -2.0, -2.0, 7.5, -2.0, -2.0, 13.0, 3.5, -2.0, -2.0, 47.5, 15.0, -2.0, -2.0, 0.5, -2.0, -2.0], "value": [[[54.15217391304348]], [[72.07407407407408]], [[77.0]], [[64.9090909090909]], [[66.0]], [[60.0]], [[28.68421052631579]], [[37.84615384615385]], [[44.857142857142854]], [[47.0]], [[42.0]], [[29.666666666666668]], [[33.0]], [[29.0]], [[8.833333333333334]], [[14.5]], [[16.0]], [[13.0]], [[6.0]], [[8.5]], [[9.0]], [[8.0]], [[3.5]], [[2.0]], [[5.0]]], "impurity": [573.8246691871454, 37.475994513030855, 0.0, 5.355371900826867, 0.0, 0.0, 230.95290858725753, 61.66863905325431, 6.122448979592036, 0.0, 0.0, 2.2222222222221717, 0.0, 0.0, 21.805555555555543, 2.25, 0.0, 0.0, 7.5, 0.25, 0.0, 0.0, 2.25, 0.0, 0.0]}, {"children_left": [1, 2, -1, 4, -1, -1, 7, 8, 9, -1, 11, -1, -1, 14, -1, -1, 17, 18, -1, -1, 21, 22, -1, -1, 25, -1, -1], "children_right": [6, 3, -1, 5, -1, -1, 16, 13, 10, -1, 12, -1, -1, 15, -1, -1, 20, 19, -1, -1, 24, 23, -1, -1, 26, -1, -1], "feature": [96, 96, -2, 96, -2, -2, 96, 96, 96, -2, 96, -2, -2, 3, -2, -2, 95, 96, -2, -2, 95, 95, -2, -2, 96, -2, -2], "threshold": [3.5, 1.5, -2.0, 2.5, -2.0, -2.0, 10.5, 6.5, 4.5, -2.0, 5.5, -2.0, -2.0, 0.5, -2.0, -2.0, 10.0, 15.0, -2.0, -2.0, 16.5, 15.0, -2.0, -2.0, 73.0, -2.0, -2.0], "value": [[[54.71739130434783]], [[71.44444444444444]], [[77.0]], [[64.5]], [[66.0]], [[60.0]], [[30.94736842105263]], [[40.53846153846154]], [[43.6]], [[47.0]], [[40.2]], [[42.0]], [[39.0]], [[30.333333333333332]], [[29.0]], [[33.0]], [[10.166666666666666]], [[18.5]], [[20.0]], [[17.0]], [[6.0]], [[8.5]], [[9.0]], [[8.0]], [[3.5]], [[5.0]], [[2.0]]], "impurity": [521.4201323251418, 41.580246913580595, 0.0, 6.75, 0.0, 0.0, 240.68144044321343, 41.786982248520644, 12.639999999999873, 0.0, 2.1599999999998545, 0.0, 0.0, 3.555555555555543, 0.0, 0.0, 40.47222222222224, 2.25, 0.0, 0.0, 7.5, 0.25, 0.0, 0.0, 2.25, 0.0, 0.0]}, {"children_left": [1, 2, 3, -1, -1, 6, -1, 8, -1, -1, 11, 12, 13, -1, 15, -1, -1, 18, -1, 20, -1, -1, 23, 24, -1, 26, 27, -1, -1, -1, -1], "children_right": [10, 5, 4, -1, -1, 7, -1, 9, -1, -1, 22, 17, 14, -1, 16, -1, -1, 19, -1, 21, -1, -1, 30, 25, -1, 29, 28, -1, -1, -1, -1], "feature": [96, 96, 96, -2, -2, 96, -2, 95, -2, -2, 96, 96, 96, -2, 44, -2, -2, 95, -2, 94, -2, -2, 37, 93, -2, 96, 93, -2, -2, -2, -2], "threshold": [6.0, 2.5, 1.5, -2.0, -2.0, 3.5, -2.0, 2.5, -2.0, -2.0, 18.5, 10.0, 7.5, -2.0, 0.5, -2.0, -2.0, 4.5, -2.0, 6.0, -2.0, -2.0, 0.5, 16.0, -2.0, 76.5, 24.5, -2.0, -2.0, -2.0, -2.0], "value": [[[46.130434782608695]], [[64.60714285714286]], [[72.47058823529412]], [[77.0]], [[66.0]], [[52.45454545454545]], [[60.0]], [[46.166666666666664]], [[47.0]], [[42.0]], [[17.38888888888889]], [[25.3]], [[30.0]], [[33.0]], [[28.0]], [[29.0]], [[26.0]], [[20.6]], [[23.0]], [[19.0]], [[20.0]], [[17.0]], [[7.5]], [[4.2]], [[8.0]], [[3.25]], [[4.5]], [[4.0]], [[5.0]], [[2.0]], [[13.0]]], "impurity": [652.2873345935727, 132.7385204081629, 29.30795847750869, 0.0, 0.0, 49.33884297520672, 0.0, 3.4722222222226264, 0.0, 0.0, 103.34876543209873, 28.209999999999923, 7.2000000000000455, 0.0, 2.0, 0.0, 0.0, 5.039999999999907, 0.0, 2.0, 0.0, 0.0, 21.25, 4.960000000000001, 0.0, 1.6875, 0.25, 0.0, 0.0, 0.0, 0.0]}, {"children_left": [1, 2, 3, -1, -1, 6, -1, -1, 9, 10, 11, -1, -1, -1, 15, 16, -1, 18, -1, -1, 21, 22, -1, -1, 25, -1, -1], "children_right": [8, 5, 4, -1, -1, 7, -1, -1, 14, 13, 12, -1, -1, -1, 20, 17, -1, 19, -1, -1, 24, 23, -1, -1, 26, -1, -1], "feature": [96, 96, 96, -2, -2, 96, -2, -2, 96, 47, 39, -2, -2, -2, 96, 96, -2, 93, -2, -2, 95, 59, -2, -2, 95, -2, -2], "threshold": [4.5, 2.5, 1.5, -2.0, -2.0, 3.5, -2.0, -2.0, 10.5, 0.5, 0.5, -2.0, -2.0, -2.0, 27.5, 15.0, -2.0, 2.0, -2.0, -2.0, 17.0, 0.5, -2.0, -2.0, 20.0, -2.0, -2.0], "value": [[[48.06521739130435]], [[64.67857142857143]], [[70.88888888888889]], [[77.0]], [[66.0]], [[53.5]], [[60.0]], [[47.0]], [[22.22222222222222]], [[38.125]], [[39.42857142857143]], [[39.0]], [[42.0]], [[29.0]], [[9.5]], [[17.666666666666668]], [[20.0]], [[16.5]], [[16.0]], [[17.0]], [[6.0]], [[8.5]], [[8.0]], [[9.0]], [[2.6666666666666665]], [[2.0]], [[4.0]]], "impurity": [581.6261814744798, 103.7181122448983, 29.876543209877127, 0.0, 0.0, 42.25, 0.0, 0.0, 227.8395061728395, 12.859375, 1.1020408163265074, 0.0, 0.0, 0.0, 35.650000000000006, 2.8888888888888573, 0.0, 0.25, 0.0, 0.0, 8.857142857142854, 0.25, 0.0, 0.0, 0.8888888888888893, 0.0, 0.0]}, {"children_left": [1, 2, 3, -1, 5, -1, -1, -1, 9, 10, 11, -1, -1, -1, 15, 16, 17, -1, -1, -1, 21, -1, 23, -1, -1], "children_right": [8, 7, 4, -1, 6, -1, -1, -1, 14, 13, 12, -1, -1, -1, 20, 19, 18, -1, -1, -1, 22, -1, 24, -1, -1], "feature": [96, 96, 96, -2, 96, -2, -2, -2, 96, 96, 12, -2, -2, -2, 93, 95, 93, -2, -2, -2, 96, -2, 45, -2, -2], "threshold": [4.5, 3.5, 1.5, -2.0, 2.5, -2.0, -2.0, -2.0, 9.0, 6.5, 0.5, -2.0, -2.0, -2.0, 5.0, 9.0, 3.5, -2.0, -2.0, -2.0, 28.5, -2.0, 0.5, -2.0, -2.0], "value": [[[52.369565217391305]], [[66.41935483870968]], [[68.5]], [[77.0]], [[65.1]], [[66.0]], [[60.0]], [[47.0]], [[23.333333333333332]], [[39.6]], [[41.25]], [[42.0]], [[39.0]], [[33.0]], [[15.2]], [[21.0]], [[22.25]], [[20.0]], [[23.0]], [[16.0]], [[9.4]], [[13.0]], [[7.0]], [[8.0]], [[5.0]]], "impurity": [508.4503780718337, 69.46930280957349, 32.17857142857156, 0.0, 4.590000000001055, 0.0, 0.0, 0.0, 164.62222222222238, 12.240000000000009, 1.6875, 0.0, 0.0, 0.0, 42.359999999999985, 7.600000000000023, 1.6875, 0.0, 0.0, 0.0, 9.83999999999999, 0.0, 2.0, 0.0, 0.0]}, {"children_left": [1, 2, -1, 4, -1, -1, 7, 8, -1, 10, -1, 12, -1, -1, 15, 16, 17, -1, -1, -1, 21, -1, 23, -1, -1], "children_right": [6, 3, -1, 5, -1, -1, 14, 9, -1, 11, -1, 13, -1, -1, 20, 19, 18, -1, -1, -1, 22, -1, 24, -1, -1], "feature": [96, 96, -2, 96, -2, -2, 96, 93, -2, 96, -2, 96, -2, -2, 95, 80, 95, -2, -2, -2, 95, -2, 33, -2, -2], "threshold": [3.5, 1.5, -2.0, 2.5, -2.0, -2.0, 9.5, 0.5, -2.0, 4.5, -2.0, 5.5, -2.0, -2.0, 10.0, 0.5, 4.5, -2.0, -2.0, -2.0, 16.0, -2.0, 0.5, -2.0, -2.0], "value": [[[52.608695652173914]], [[69.81481481481481]], [[77.0]], [[64.875]], [[66.0]], [[60.0]], [[28.157894736842106]], [[39.45454545454545]], [[29.0]], [[43.375]], [[47.0]], [[39.75]], [[42.0]], [[39.0]], [[12.625]], [[19.25]], [[21.5]], [[23.0]], [[20.0]], [[17.0]], [[6.0]], [[9.0]], [[3.0]], [[2.0]], [[4.0]]], "impurity": [537.151228733459, 38.74348422496678, 0.0, 5.484375, 0.0, 0.0, 226.86980609418276, 51.15702479338847, 0.0, 13.984375, 0.0, 1.6875, 0.0, 0.0, 51.734375, 6.1875, 2.25, 0.0, 0.0, 0.0, 9.5, 0.0, 1.0, 0.0, 0.0]}, {"children_left": [1, 2, 3, -1, 5, -1, -1, 8, -1, -1, 11, 12, -1, 14, -1, -1, 17, 18, 19, -1, -1, -1, 23, 24, -1, -1, 27, -1, -1], "children_right": [10, 7, 4, -1, 6, -1, -1, 9, -1, -1, 16, 13, -1, 15, -1, -1, 22, 21, 20, -1, -1, -1, 26, 25, -1, -1, 28, -1, -1], "feature": [96, 96, 96, -2, 96, -2, -2, 95, -2, -2, 96, 96, -2, 30, -2, -2, 93, 93, 96, -2, -2, -2, 93, 31, -2, -2, 95, -2, -2], "threshold": [5.5, 3.5, 1.5, -2.0, 2.5, -2.0, -2.0, 2.5, -2.0, -2.0, 13.0, 7.0, -2.0, 0.5, -2.0, -2.0, 8.0, 4.5, 18.0, -2.0, -2.0, -2.0, 18.5, 0.5, -2.0, -2.0, 17.5, -2.0, -2.0], "value": [[[50.80434782608695]], [[66.09375]], [[69.81481481481481]], [[77.0]], [[64.875]], [[66.0]], [[60.0]], [[46.0]], [[47.0]], [[42.0]], [[15.857142857142858]], [[30.0]], [[39.0]], [[27.0]], [[26.0]], [[29.0]], [[10.2]], [[15.2]], [[16.666666666666668]], [[17.0]], [[16.0]], [[13.0]], [[5.2]], [[8.5]], [[9.0]], [[8.0]], [[3.0]], [[5.0]], [[2.0]]], "impurity": [643.0704158790172, 108.0849609375, 38.74348422496678, 0.0, 5.484375, 0.0, 0.0, 4.0, 0.0, 0.0, 110.26530612244898, 28.5, 0.0, 2.0, 0.0, 0.0, 30.960000000000008, 3.3600000000000136, 0.2222222222221717, 0.0, 0.0, 0.0, 8.559999999999999, 0.25, 0.0, 0.0, 2.0, 0.0, 0.0]}, {"children_left": [1, 2, -1, -1, 5, 6, 7, -1, 9, -1, -1, 12, 13, -1, -1, -1, 17, 18, -1, 20, -1, -1, 23, -1, -1], "children_right": [4, 3, -1, -1, 16, 11, 8, -1, 10, -1, -1, 15, 14, -1, -1, -1, 22, 19, -1, 21, -1, -1, 24, -1, -1], "feature": [96, 96, -2, -2, 93, 95, 96, -2, 93, -2, -2, 3, 93, -2, -2, -2, 95, 96, -2, 94, -2, -2, 64, -2, -2], "threshold": [3.0, 1.5, -2.0, -2.0, 5.0, 3.5, 4.5, -2.0, 2.0, -2.0, -2.0, 0.5, 2.0, -2.0, -2.0, -2.0, 17.0, 28.0, -2.0, 11.5, -2.0, -2.0, 0.5, -2.0, -2.0], "value": [[[54.108695652173914]], [[70.48148148148148]], [[77.0]], [[66.0]], [[30.842105263157894]], [[41.30769230769231]], [[44.9]], [[47.0]], [[40.0]], [[42.0]], [[39.0]], [[29.333333333333332]], [[27.5]], [[29.0]], [[26.0]], [[33.0]], [[8.166666666666666]], [[10.75]], [[13.0]], [[8.5]], [[8.0]], [[9.0]], [[3.0]], [[4.0]], [[2.0]]], "impurity": [513.4012287334594, 29.21262002743515, 0.0, 0.0, 279.18559556786715, 53.28994082840245, 10.890000000000327, 0.0, 2.0, 0.0, 0.0, 8.222222222222285, 2.25, 0.0, 0.0, 0.0, 17.1388888888889, 5.1875, 0.0, 0.25, 0.0, 0.0, 1.0, 0.0, 0.0]}, {"children_left": [1, 2, -1, 4, -1, -1, 7, 8, -1, 10, 11, -1, -1, -1, 15, 16, 17, -1, 19, -1, -1, -1, 23, -1, -1], "children_right": [6, 3, -1, 5, -1, -1, 14, 9, -1, 13, 12, -1, -1, -1, 22, 21, 18, -1, 20, -1, -1, -1, 24, -1, -1], "feature": [96, 96, -2, 96, -2, -2, 96, 96, -2, 96, 96, -2, -2, -2, 93, 96, 96, -2, 94, -2, -2, -2, 33, -2, -2], "threshold": [3.5, 1.5, -2.0, 2.5, -2.0, -2.0, 7.5, 4.5, -2.0, 6.5, 5.5, -2.0, -2.0, -2.0, 13.0, 15.0, 8.5, -2.0, 2.5, -2.0, -2.0, -2.0, 0.5, -2.0, -2.0], "value": [[[51.23913043478261]], [[68.46153846153847]], [[77.0]], [[64.66666666666667]], [[66.0]], [[60.0]], [[28.85]], [[42.0]], [[47.0]], [[39.0]], [[40.5]], [[42.0]], [[39.0]], [[33.0]], [[20.083333333333332]], [[25.22222222222222]], [[26.375]], [[29.0]], [[24.8]], [[26.0]], [[23.0]], [[16.0]], [[4.666666666666667]], [[5.0]], [[4.0]]], "impurity": [483.9645557655954, 36.710059171597095, 0.0, 6.222222222221717, 0.0, 0.0, 178.52749999999992, 21.75, 0.0, 10.799999999999955, 2.25, 0.0, 0.0, 0.0, 90.90972222222229, 15.506172839506121, 5.484375, 0.0, 2.159999999999968, 0.0, 0.0, 0.0, 0.22222222222221788, 0.0, 0.0]}, {"children_left": [1, 2, 3, -1, -1, -1, 7, 8, -1, 10, -1, 12, -1, -1, 15, 16, 17, -1, -1, 20, 21, -1, -1, -1, 25, 26, -1, -1, 29, -1, -1], "children_right": [6, 5, 4, -1, -1, -1, 14, 9, -1, 11, -1, 13, -1, -1, 24, 19, 18, -1, -1, 23, 22, -1, -1, -1, 28, 27, -1, -1, 30, -1, -1], "feature": [96, 96, 96, -2, -2, -2, 96, 96, -2, 96, -2, 94, -2, -2, 96, 96, 95, -2, -2, 37, 80, -2, -2, -2, 96, 31, -2, -2, 93, -2, -2], "threshold": [5.0, 3.0, 1.5, -2.0, -2.0, -2.0, 10.0, 6.5, -2.0, 7.5, -2.0, 0.5, -2.0, -2.0, 28.0, 15.0, 4.5, -2.0, -2.0, 0.5, 0.5, -2.0, -2.0, -2.0, 51.0, 0.5, -2.0, -2.0, 30.0, -2.0, -2.0], "value": [[[37.06521739130435]], [[64.55555555555556]], [[73.33333333333333]], [[77.0]], [[66.0]], [[47.0]], [[19.392857142857142]], [[34.857142857142854]], [[39.0]], [[29.333333333333332]], [[33.0]], [[27.5]], [[29.0]], [[26.0]], [[14.238095238095237]], [[17.866666666666667]], [[21.0]], [[23.0]], [[20.0]], [[15.777777777777779]], [[16.571428571428573]], [[16.0]], [[17.0]], [[13.0]], [[5.166666666666667]], [[8.5]], [[9.0]], [[8.0]], [[3.5]], [[4.0]], [[2.0]]], "impurity": [624.3653119092626, 172.02469135802403, 26.888888888889596, 0.0, 0.0, 0.0, 117.02423469387753, 26.408163265306257, 0.0, 8.222222222222285, 0.0, 2.25, 0.0, 0.0, 40.943310657596385, 8.78222222222223, 2.0, 0.0, 0.0, 2.395061728395035, 0.24489795918361779, 0.0, 0.0, 0.0, 6.138888888888889, 0.25, 0.0, 0.0, 0.75, 0.0, 0.0]}, {"children_left": [1, 2, -1, 4, 5, -1, -1, -1, 9, 10, 11, -1, -1, -1, 15, 16, 17, -1, -1, -1, 21, 22, -1, -1, -1], "children_right": [8, 3, -1, 7, 6, -1, -1, -1, 14, 13, 12, -1, -1, -1, 20, 19, 18, -1, -1, -1, 24, 23, -1, -1, -1], "feature": [96, 96, -2, 96, 96, -2, -2, -2, 96, 94, 12, -2, -2, -2, 93, 94, 82, -2, -2, -2, 96, 93, -2, -2, -2], "threshold": [4.5, 1.5, -2.0, 3.5, 2.5, -2.0, -2.0, -2.0, 9.5, 3.0, 0.5, -2.0, -2.0, -2.0, 5.0, 6.0, 0.5, -2.0, -2.0, -2.0, 62.0, 8.0, -2.0, -2.0, -2.0], "value": [[[54.73913043478261]], [[67.87878787878788]], [[77.0]], [[61.95]], [[64.58823529411765]], [[66.0]], [[60.0]], [[47.0]], [[21.384615384615383]], [[38.0]], [[41.0]], [[42.0]], [[39.0]], [[29.0]], [[14.0]], [[20.0]], [[21.0]], [[23.0]], [[20.0]], [[17.0]], [[9.2]], [[11.0]], [[13.0]], [[9.0]], [[2.0]]], "impurity": [541.5406427221174, 81.31864095500532, 0.0, 44.94749999999976, 6.477508650517848, 0.0, 0.0, 0.0, 159.00591715976333, 28.5, 2.0, 0.0, 0.0, 0.0, 39.77777777777777, 4.5, 2.0, 0.0, 0.0, 0.0, 16.16000000000001, 4.0, 0.0, 0.0, 0.0]}, {"children_left": [1, 2, 3, -1, -1, 6, -1, -1, 9, 10, 11, -1, 13, -1, -1, -1, 17, 18, 19, -1, -1, -1, -1], "children_right": [8, 5, 4, -1, -1, 7, -1, -1, 16, 15, 12, -1, 14, -1, -1, -1, 22, 21, 20, -1, -1, -1, -1], "feature": [96, 96, 96, -2, -2, 96, -2, -2, 96, 12, 96, -2, 95, -2, -2, -2, 93, 96, 93, -2, -2, -2, -2], "threshold": [5.0, 2.5, 1.5, -2.0, -2.0, 3.5, -2.0, -2.0, 15.0, 0.5, 9.5, -2.0, 4.5, -2.0, -2.0, -2.0, 14.0, 19.5, 2.0, -2.0, -2.0, -2.0, -2.0], "value": [[[52.65217391304348]], [[66.39393939393939]], [[71.5]], [[77.0]], [[66.0]], [[52.77777777777778]], [[60.0]], [[47.0]], [[17.76923076923077]], [[28.166666666666668]], [[26.0]], [[29.0]], [[21.5]], [[23.0]], [[20.0]], [[39.0]], [[8.857142857142858]], [[15.333333333333334]], [[16.5]], [[16.0]], [[17.0]], [[13.0]], [[4.0]]], "impurity": [588.9659735349719, 102.90541781450884, 30.25, 0.0, 0.0, 41.728395061728406, 0.0, 0.0, 126.63905325443784, 35.47222222222217, 14.399999999999977, 0.0, 2.25, 0.0, 0.0, 0.0, 32.69387755102039, 2.8888888888888573, 0.25, 0.0, 0.0, 0.0, 0.0]}, {"children_left": [1, 2, 3, -1, -1, 6, -1, -1, 9, 10, 11, -1, 13, -1, -1, 16, -1, -1, 19, 20, -1, -1, 23, 24, -1, -1, 27, 28, -1, -1, -1], "children_right": [8, 5, 4, -1, -1, 7, -1, -1, 18, 15, 12, -1, 14, -1, -1, 17, -1, -1, 22, 21, -1, -1, 26, 25, -1, -1, 30, 29, -1, -1, -1], "feature": [96, 96, 96, -2, -2, 96, -2, -2, 94, 96, 96, -2, 3, -2, -2, 19, -2, -2, 95, 80, -2, -2, 93, 59, -2, -2, 64, 45, -2, -2, -2], "threshold": [4.5, 2.5, 1.5, -2.0, -2.0, 3.5, -2.0, -2.0, 5.5, 9.5, 6.0, -2.0, 0.5, -2.0, -2.0, 0.5, -2.0, -2.0, 13.0, 0.5, -2.0, -2.0, 16.0, 0.5, -2.0, -2.0, 0.5, 0.5, -2.0, -2.0, -2.0], "value": [[[50.30434782608695]], [[66.7]], [[71.5]], [[77.0]], [[66.0]], [[53.5]], [[60.0]], [[47.0]], [[19.5625]], [[28.0]], [[33.2]], [[42.0]], [[31.0]], [[29.0]], [[33.0]], [[21.5]], [[20.0]], [[23.0]], [[8.714285714285714]], [[16.5]], [[16.0]], [[17.0]], [[5.6]], [[8.5]], [[8.0]], [[9.0]], [[3.6666666666666665]], [[4.5]], [[4.0]], [[5.0]], [[2.0]]], "impurity": [612.6899810964087, 96.80999999999949, 30.25, 0.0, 0.0, 42.25, 0.0, 0.0, 130.87109375, 47.33333333333337, 22.559999999999718, 0.0, 4.0, 0.0, 0.0, 2.25, 0.0, 0.0, 29.061224489795933, 0.25, 0.0, 0.0, 6.640000000000004, 0.25, 0.0, 0.0, 1.5555555555555571, 0.25, 0.0, 0.0, 0.0]}, {"children_left": [1, 2, 3, -1, 5, -1, -1, 8, -1, -1, 11, 12, 13, -1, -1, 16, 17, -1, -1, -1, 21, 22, -1, -1, 25, 26, -1, -1, -1], "children_right": [10, 7, 4, -1, 6, -1, -1, 9, -1, -1, 20, 15, 14, -1, -1, 19, 18, -1, -1, -1, 24, 23, -1, -1, 28, 27, -1, -1, -1], "feature": [96, 96, 96, -2, 96, -2, -2, 12, -2, -2, 96, 95, 95, -2, -2, 96, 94, -2, -2, -2, 93, 96, -2, -2, 94, 96, -2, -2, -2], "threshold": [7.5, 3.5, 1.5, -2.0, 2.5, -2.0, -2.0, 0.5, -2.0, -2.0, 28.0, 5.0, 3.5, -2.0, -2.0, 19.5, 7.0, -2.0, -2.0, -2.0, 16.0, 36.5, -2.0, -2.0, 26.5, 61.5, -2.0, -2.0, -2.0], "value": [[[48.45652173913044]], [[65.5]], [[71.0]], [[77.0]], [[64.5]], [[66.0]], [[60.0]], [[45.857142857142854]], [[47.0]], [[39.0]], [[9.5]], [[19.0]], [[24.5]], [[23.0]], [[26.0]], [[15.333333333333334]], [[16.5]], [[16.0]], [[17.0]], [[13.0]], [[4.222222222222222]], [[8.5]], [[9.0]], [[8.0]], [[3.0]], [[4.333333333333333]], [[5.0]], [[4.0]], [[2.0]]], "impurity": [782.2481096408314, 142.75, 42.23999999999978, 0.0, 6.75, 0.0, 0.0, 7.836734693878043, 0.0, 0.0, 62.39285714285714, 22.80000000000001, 2.25, 0.0, 0.0, 2.8888888888888573, 0.25, 0.0, 0.0, 0.0, 6.39506172839506, 0.25, 0.0, 0.0, 1.4285714285714288, 0.22222222222222499, 0.0, 0.0, 0.0]}, {"children_left": [1, 2, -1, 4, -1, -1, 7, 8, -1, 10, -1, -1, 13, 14, -1, 16, -1, -1, 19, 20, -1, -1, 23, -1, -1], "children_right": [6, 3, -1, 5, -1, -1, 12, 9, -1, 11, -1, -1, 18, 15, -1, 17, -1, -1, 22, 21, -1, -1, 24, -1, -1], "feature": [96, 96, -2, 96, -2, -2, 96, 96, -2, 96, -2, -2, 96, 96, -2, 44, -2, -2, 93, 89, -2, -2, 94, -2, -2], "threshold": [3.5, 1.5, -2.0, 2.5, -2.0, -2.0, 7.0, 4.5, -2.0, 5.5, -2.0, -2.0, 15.0, 8.5, -2.0, 0.5, -2.0, -2.0, 8.0, 0.5, -2.0, -2.0, 21.5, -2.0, -2.0], "value": [[[53.97826086956522]], [[71.23076923076923]], [[77.0]], [[64.5]], [[66.0]], [[60.0]], [[31.55]], [[44.9]], [[47.0]], [[40.0]], [[42.0]], [[39.0]], [[18.2]], [[26.0]], [[29.0]], [[24.0]], [[23.0]], [[26.0]], [[10.4]], [[14.0]], [[13.0]], [[16.0]], [[5.0]], [[8.0]], [[2.0]]], "impurity": [507.1517013232515, 41.94674556213067, 0.0, 6.75, 0.0, 0.0, 221.94749999999988, 10.890000000000327, 0.0, 2.0, 0.0, 0.0, 76.56000000000006, 7.2000000000000455, 0.0, 2.0, 0.0, 0.0, 24.239999999999995, 2.0, 0.0, 0.0, 9.0, 0.0, 0.0]}, {"children_left": [1, 2, 3, -1, 5, -1, -1, -1, 9, 10, 11, -1, -1, 14, -1, -1, 17, 18, 19, -1, -1, 22, 23, -1, -1, -1, 27, -1, -1], "children_right": [8, 7, 4, -1, 6, -1, -1, -1, 16, 13, 12, -1, -1, 15, -1, -1, 26, 21, 20, -1, -1, 25, 24, -1, -1, -1, 28, -1, -1], "feature": [96, 96, 96, -2, 93, -2, -2, -2, 96, 96, 39, -2, -2, 94, -2, -2, 93, 94, 95, -2, -2, 37, 96, -2, -2, -2, 93, -2, -2], "threshold": [4.5, 3.5, 1.5, -2.0, 1.5, -2.0, -2.0, -2.0, 10.0, 7.0, 0.5, -2.0, -2.0, 3.0, -2.0, -2.0, 8.0, 5.0, 4.5, -2.0, -2.0, 0.5, 18.0, -2.0, -2.0, -2.0, 24.0, -2.0, -2.0], "value": [[[44.30434782608695]], [[65.0]], [[69.73684210526316]], [[77.0]], [[65.5]], [[66.0]], [[60.0]], [[47.0]], [[21.727272727272727]], [[34.0]], [[40.5]], [[39.0]], [[42.0]], [[27.5]], [[26.0]], [[29.0]], [[14.714285714285714]], [[17.09090909090909]], [[21.0]], [[23.0]], [[20.0]], [[15.625]], [[16.5]], [[17.0]], [[16.0]], [[13.0]], [[6.0]], [[8.0]], [[2.0]]], "impurity": [582.8204158790172, 111.0, 32.50969529085796, 0.0, 2.75, 0.0, 0.0, 0.0, 120.56198347107437, 44.5, 2.25, 0.0, 0.0, 2.25, 0.0, 0.0, 28.775510204081655, 8.082644628099217, 2.0, 0.0, 0.0, 2.484375, 0.25, 0.0, 0.0, 0.0, 8.0, 0.0, 0.0]}, {"children_left": [1, 2, 3, -1, -1, 6, -1, -1, 9, 10, -1, 12, -1, -1, 15, 16, 17, -1, -1, -1, 21, -1, 23, 24, -1, -1, -1], "children_right": [8, 5, 4, -1, -1, 7, -1, -1, 14, 11, -1, 13, -1, -1, 20, 19, 18, -1, -1, -1, 22, -1, 26, 25, -1, -1, -1], "feature": [96, 96, 96, -2, -2, 79, -2, -2, 95, 96, -2, 95, -2, -2, 95, 95, 96, -2, -2, -2, 96, -2, 96, 93, -2, -2, -2], "threshold": [5.0, 2.5, 1.5, -2.0, -2.0, 0.5, -2.0, -2.0, 5.5, 6.5, -2.0, 3.0, -2.0, -2.0, 11.5, 6.5, 15.0, -2.0, -2.0, -2.0, 47.5, -2.0, 76.5, 24.5, -2.0, -2.0, -2.0], "value": [[[47.28260869565217]], [[65.17241379310344]], [[72.05]], [[77.0]], [[66.0]], [[49.888888888888886]], [[47.0]], [[60.0]], [[16.764705882352942]], [[35.8]], [[39.0]], [[31.0]], [[29.0]], [[33.0]], [[8.833333333333334]], [[15.75]], [[18.5]], [[20.0]], [[17.0]], [[13.0]], [[5.375]], [[8.0]], [[3.8]], [[4.25]], [[4.0]], [[5.0]], [[2.0]]], "impurity": [696.4201323251423, 134.8323424494656, 29.94750000000022, 0.0, 0.0, 29.209876543210612, 0.0, 0.0, 177.12110726643596, 16.960000000000036, 0.0, 4.0, 0.0, 0.0, 29.972222222222214, 8.6875, 2.25, 0.0, 0.0, 0.0, 4.734375, 0.0, 0.9600000000000009, 0.1875, 0.0, 0.0, 0.0]}, {"children_left": [1, 2, -1, 4, 5, -1, -1, -1, 9, 10, -1, -1, 13, -1, 15, -1, -1], "children_right": [8, 3, -1, 7, 6, -1, -1, -1, 12, 11, -1, -1, 14, -1, 16, -1, -1], "feature": [96, 96, -2, 96, 96, -2, -2, -2, 96, 93, -2, -2, 94, -2, 96, -2, -2], "threshold": [5.0, 1.5, -2.0, 3.5, 2.5, -2.0, -2.0, -2.0, 14.0, 3.5, -2.0, -2.0, 9.5, -2.0, 62.5, -2.0, -2.0], "value": [[[57.28260869565217]], [[66.70270270270271]], [[77.0]], [[61.76]], [[64.57142857142857]], [[66.0]], [[60.0]], [[47.0]], [[18.555555555555557]], [[31.0]], [[39.0]], [[23.0]], [[8.6]], [[17.0]], [[6.5]], [[8.0]], [[2.0]]], "impurity": [463.5940453686203, 82.6413440467486, 0.0, 46.982400000000325, 6.530612244898293, 0.0, 0.0, 0.0, 165.13580246913574, 64.0, 0.0, 0.0, 23.040000000000006, 0.0, 6.75, 0.0, 0.0]}, {"children_left": [1, 2, 3, -1, -1, 6, -1, -1, 9, 10, 11, -1, -1, 14, -1, 16, -1, -1, 19, 20, 21, -1, -1, -1, 25, 26, -1, -1, 29, -1, -1], "children_right": [8, 5, 4, -1, -1, 7, -1, -1, 18, 13, 12, -1, -1, 15, -1, 17, -1, -1, 24, 23, 22, -1, -1, -1, 28, 27, -1, -1, 30, -1, -1], "feature": [96, 96, 96, -2, -2, 96, -2, -2, 95, 96, 3, -2, -2, 93, -2, 95, -2, -2, 95, 82, 94, -2, -2, -2, 94, 59, -2, -2, 95, -2, -2], "threshold": [5.0, 2.5, 1.5, -2.0, -2.0, 3.5, -2.0, -2.0, 5.5, 7.5, 0.5, -2.0, -2.0, 3.0, -2.0, 3.5, -2.0, -2.0, 13.0, 0.5, 6.5, -2.0, -2.0, -2.0, 16.5, 0.5, -2.0, -2.0, 20.0, -2.0, -2.0], "value": [[[45.93478260869565]], [[66.76]], [[73.76470588235294]], [[77.0]], [[66.0]], [[51.875]], [[60.0]], [[47.0]], [[21.142857142857142]], [[33.9]], [[37.285714285714285]], [[39.0]], [[33.0]], [[26.0]], [[29.0]], [[24.5]], [[23.0]], [[26.0]], [[9.545454545454545]], [[15.6]], [[14.5]], [[16.0]], [[13.0]], [[20.0]], [[4.5]], [[8.5]], [[8.0]], [[9.0]], [[2.5]], [[2.0]], [[4.0]]], "impurity": [673.1479206049153, 134.02239999999983, 25.1211072664355, 0.0, 0.0, 39.609375, 0.0, 0.0, 184.02721088435374, 33.69000000000028, 7.346938775510353, 0.0, 0.0, 6.0, 0.0, 2.25, 0.0, 0.0, 38.24793388429754, 6.640000000000015, 2.25, 0.0, 0.0, 0.0, 8.583333333333332, 0.25, 0.0, 0.0, 0.75, 0.0, 0.0]}, {"children_left": [1, 2, 3, -1, -1, 6, -1, -1, 9, 10, 11, -1, -1, 14, -1, -1, 17, 18, 19, -1, -1, 22, -1, -1, 25, -1, 27, -1, -1], "children_right": [8, 5, 4, -1, -1, 7, -1, -1, 16, 13, 12, -1, -1, 15, -1, -1, 24, 21, 20, -1, -1, 23, -1, -1, 26, -1, 28, -1, -1], "feature": [96, 96, 96, -2, -2, 96, -2, -2, 96, 96, 39, -2, -2, 3, -2, -2, 96, 96, 95, -2, -2, 93, -2, -2, 94, -2, 96, -2, -2], "threshold": [4.5, 2.5, 1.5, -2.0, -2.0, 3.5, -2.0, -2.0, 9.5, 6.5, 0.5, -2.0, -2.0, 0.5, -2.0, -2.0, 19.5, 15.0, 4.5, -2.0, -2.0, 2.0, -2.0, -2.0, 9.5, -2.0, 47.0, -2.0, -2.0], "value": [[[44.108695652173914]], [[65.65217391304348]], [[72.1875]], [[77.0]], [[66.0]], [[50.714285714285715]], [[60.0]], [[47.0]], [[22.565217391304348]], [[34.125]], [[40.0]], [[39.0]], [[42.0]], [[30.6]], [[29.0]], [[33.0]], [[16.4]], [[19.09090909090909]], [[21.5]], [[23.0]], [[20.0]], [[16.2]], [[16.0]], [[17.0]], [[9.0]], [[13.0]], [[7.666666666666667]], [[9.0]], [[5.0]]], "impurity": [577.4881852551985, 128.83553875236248, 29.77734375, 0.0, 0.0, 34.489795918367236, 0.0, 0.0, 97.89792060491493, 23.859375, 2.0, 0.0, 0.0, 3.839999999999918, 0.0, 0.0, 28.106666666666683, 8.264462809917404, 2.25, 0.0, 0.0, 0.160000000000025, 0.0, 0.0, 8.0, 0.0, 3.55555555555555, 0.0, 0.0]}, {"children_left": [1, 2, 3, -1, -1, 6, -1, -1, 9, 10, -1, 12, -1, -1, 15, 16, -1, 18, -1, -1, 21, 22, -1, -1, 25, -1, -1], "children_right": [8, 5, 4, -1, -1, 7, -1, -1, 14, 11, -1, 13, -1, -1, 20, 17, -1, 19, -1, -1, 24, 23, -1, -1, 26, -1, -1], "feature": [96, 96, 96, -2, -2, 95, -2, -2, 95, 96, -2, 93, -2, -2, 93, 96, -2, 96, -2, -2, 95, 59, -2, -2, 93, -2, -2], "threshold": [5.0, 2.5, 1.5, -2.0, -2.0, 0.5, -2.0, -2.0, 5.0, 7.0, -2.0, 3.0, -2.0, -2.0, 8.0, 16.0, -2.0, 19.5, -2.0, -2.0, 17.0, 0.5, -2.0, -2.0, 30.0, -2.0, -2.0], "value": [[[51.5]], [[66.65625]], [[71.04166666666667]], [[77.0]], [[66.0]], [[53.5]], [[60.0]], [[47.0]], [[16.857142857142858]], [[33.25]], [[39.0]], [[27.5]], [[29.0]], [[26.0]], [[10.3]], [[15.6]], [[20.0]], [[14.5]], [[16.0]], [[13.0]], [[5.0]], [[8.5]], [[8.0]], [[9.0]], [[2.6666666666666665]], [[4.0]], [[2.0]]], "impurity": [631.6847826086955, 90.7880859375, 30.039930555554747, 0.0, 0.0, 42.25, 0.0, 0.0, 142.83673469387753, 34.1875, 0.0, 2.25, 0.0, 0.0, 35.80999999999999, 6.640000000000015, 0.0, 2.25, 0.0, 0.0, 8.799999999999997, 0.25, 0.0, 0.0, 0.8888888888888893, 0.0, 0.0]}, {"children_left": [1, 2, -1, 4, 5, -1, -1, -1, 9, 10, 11, -1, -1, -1, 15, 16, 17, -1, 19, -1, -1, -1, 23, 24, -1, -1, -1], "children_right": [8, 3, -1, 7, 6, -1, -1, -1, 14, 13, 12, -1, -1, -1, 22, 21, 18, -1, 20, -1, -1, -1, 26, 25, -1, -1, -1], "feature": [96, 96, -2, 96, 96, -2, -2, -2, 96, 96, 96, -2, -2, -2, 93, 96, 96, -2, 96, -2, -2, -2, 94, 59, -2, -2, -2], "threshold": [4.5, 1.5, -2.0, 3.5, 2.5, -2.0, -2.0, -2.0, 10.5, 7.0, 5.5, -2.0, -2.0, -2.0, 8.0, 19.5, 15.0, -2.0, 18.0, -2.0, -2.0, -2.0, 16.5, 0.5, -2.0, -2.0, -2.0], "value": [[[49.47826086956522]], [[67.37931034482759]], [[77.0]], [[61.5]], [[64.4]], [[66.0]], [[60.0]], [[47.0]], [[18.941176470588236]], [[35.6]], [[40.0]], [[42.0]], [[39.0]], [[29.0]], [[12.0]], [[15.857142857142858]], [[17.0]], [[20.0]], [[16.25]], [[17.0]], [[16.0]], [[13.0]], [[6.6]], [[8.333333333333334]], [[8.0]], [[9.0]], [[4.0]]], "impurity": [653.771266540643, 86.3043995243761, 0.0, 47.916666666666515, 7.039999999999054, 0.0, 0.0, 0.0, 142.64359861591697, 30.23999999999978, 2.0, 0.0, 0.0, 0.0, 25.666666666666657, 4.9795918367346985, 2.3999999999999773, 0.0, 0.1875, 0.0, 0.0, 0.0, 4.640000000000008, 0.22222222222221433, 0.0, 0.0, 0.0]}, {"children_left": [1, 2, 3, -1, -1, 6, -1, -1, 9, 10, 11, -1, -1, 14, -1, -1, 17, 18, -1, 20, -1, -1, 23, 24, -1, -1, 27, 28, -1, -1, -1], "children_right": [8, 5, 4, -1, -1, 7, -1, -1, 16, 13, 12, -1, -1, 15, -1, -1, 22, 19, -1, 21, -1, -1, 26, 25, -1, -1, 30, 29, -1, -1, -1], "feature": [96, 96, 96, -2, -2, 96, -2, -2, 96, 96, 96, -2, -2, 93, -2, -2, 96, 94, -2, 89, -2, -2, 95, 95, -2, -2, 96, 96, -2, -2, -2], "threshold": [4.5, 2.5, 1.5, -2.0, -2.0, 3.5, -2.0, -2.0, 11.0, 7.0, 5.5, -2.0, -2.0, 3.0, -2.0, -2.0, 28.0, 5.0, -2.0, 0.5, -2.0, -2.0, 16.5, 15.0, -2.0, -2.0, 76.5, 61.5, -2.0, -2.0, -2.0], "value": [[[45.04347826086956]], [[67.25]], [[71.21052631578948]], [[77.0]], [[66.0]], [[52.2]], [[60.0]], [[47.0]], [[20.818181818181817]], [[34.3]], [[40.8]], [[42.0]], [[39.0]], [[27.8]], [[29.0]], [[26.0]], [[9.583333333333334]], [[16.2]], [[20.0]], [[15.25]], [[13.0]], [[16.0]], [[4.857142857142857]], [[8.5]], [[9.0]], [[8.0]], [[3.4]], [[4.333333333333333]], [[5.0]], [[4.0]], [[2.0]]], "impurity": [677.6937618147451, 91.9375, 30.16620498614884, 0.0, 0.0, 40.559999999999945, 0.0, 0.0, 191.87603305785126, 44.41000000000031, 2.160000000000082, 0.0, 0.0, 2.159999999999968, 0.0, 0.0, 37.07638888888887, 4.9599999999999795, 0.0, 1.6875, 0.0, 0.0, 6.408163265306126, 0.25, 0.0, 0.0, 1.4400000000000013, 0.22222222222222499, 0.0, 0.0, 0.0]}, {"children_left": [1, 2, 3, -1, 5, -1, -1, -1, 9, 10, 11, 12, -1, -1, -1, 16, -1, 18, -1, -1, 21, -1, 23, 24, -1, -1, -1], "children_right": [8, 7, 4, -1, 6, -1, -1, -1, 20, 15, 14, 13, -1, -1, -1, 17, -1, 19, -1, -1, 22, -1, 26, 25, -1, -1, -1], "feature": [95, 96, 96, -2, 96, -2, -2, -2, 94, 96, 96, 36, -2, -2, -2, 95, -2, 44, -2, -2, 94, -2, 96, 94, -2, -2, -2], "threshold": [2.5, 3.5, 1.5, -2.0, 2.5, -2.0, -2.0, -2.0, 6.0, 7.5, 6.5, 0.5, -2.0, -2.0, -2.0, 3.5, -2.0, 0.5, -2.0, -2.0, 9.5, -2.0, 62.5, 11.5, -2.0, -2.0, -2.0], "value": [[[49.58695652173913]], [[63.7]], [[68.78260869565217]], [[77.0]], [[64.4]], [[66.0]], [[60.0]], [[47.0]], [[23.125]], [[30.9]], [[38.25]], [[40.0]], [[42.0]], [[39.0]], [[33.0]], [[26.0]], [[23.0]], [[27.5]], [[29.0]], [[26.0]], [[10.166666666666666]], [[17.0]], [[6.75]], [[8.333333333333334]], [[8.0]], [[9.0]], [[2.0]]], "impurity": [497.4163516068047, 116.00999999999931, 40.60491493383688, 0.0, 7.039999999999054, 0.0, 0.0, 0.0, 138.859375, 43.8900000000001, 10.6875, 2.0, 0.0, 0.0, 0.0, 6.0, 0.0, 2.25, 0.0, 0.0, 28.472222222222243, 0.0, 7.6875, 0.22222222222221433, 0.0, 0.0, 0.0]}, {"children_left": [1, 2, 3, -1, 5, -1, -1, -1, 9, 10, 11, 12, -1, -1, -1, 16, -1, -1, 19, 20, -1, -1, 23, 24, -1, -1, -1], "children_right": [8, 7, 4, -1, 6, -1, -1, -1, 18, 15, 14, 13, -1, -1, -1, 17, -1, -1, 22, 21, -1, -1, 26, 25, -1, -1, -1], "feature": [96, 96, 96, -2, 96, -2, -2, -2, 94, 96, 3, 96, -2, -2, -2, 82, -2, -2, 96, 93, -2, -2, 96, 59, -2, -2, -2], "threshold": [5.5, 3.5, 1.5, -2.0, 2.5, -2.0, -2.0, -2.0, 5.5, 10.0, 0.5, 8.5, -2.0, -2.0, -2.0, 0.5, -2.0, -2.0, 28.0, 3.5, -2.0, -2.0, 62.5, 0.5, -2.0, -2.0, -2.0], "value": [[[44.32608695652174]], [[63.30769230769231]], [[70.55555555555556]], [[77.0]], [[65.4]], [[66.0]], [[60.0]], [[47.0]], [[19.65]], [[26.333333333333332]], [[28.75]], [[28.142857142857142]], [[29.0]], [[26.0]], [[33.0]], [[21.5]], [[23.0]], [[20.0]], [[9.625]], [[14.0]], [[16.0]], [[13.0]], [[7.0]], [[8.25]], [[8.0]], [[9.0]], [[2.0]]], "impurity": [584.8284499054816, 142.44378698224864, 35.02469135802494, 0.0, 3.2399999999988722, 0.0, 0.0, 0.0, 82.62750000000005, 15.222222222222285, 4.1875, 1.8367346938775881, 0.0, 0.0, 0.0, 2.25, 0.0, 0.0, 16.234375, 2.0, 0.0, 0.0, 6.399999999999999, 0.1875, 0.0, 0.0, 0.0]}, {"children_left": [1, 2, 3, -1, -1, 6, -1, -1, 9, 10, 11, -1, 13, -1, -1, 16, 17, -1, -1, -1, 21, 22, 23, -1, -1, -1, 27, -1, 29, -1, -1], "children_right": [8, 5, 4, -1, -1, 7, -1, -1, 20, 15, 12, -1, 14, -1, -1, 19, 18, -1, -1, -1, 26, 25, 24, -1, -1, -1, 28, -1, 30, -1, -1], "feature": [96, 96, 96, -2, -2, 96, -2, -2, 94, 96, 96, -2, 47, -2, -2, 82, 44, -2, -2, -2, 95, 96, 96, -2, -2, -2, 96, -2, 96, -2, -2], "threshold": [5.0, 2.5, 1.5, -2.0, -2.0, 3.5, -2.0, -2.0, 5.0, 8.5, 6.5, -2.0, 0.5, -2.0, -2.0, 0.5, 0.5, -2.0, -2.0, -2.0, 13.0, 19.5, 18.0, -2.0, -2.0, -2.0, 47.0, -2.0, 73.0, -2.0, -2.0], "value": [[[46.91304347826087]], [[64.39285714285714]], [[73.33333333333333]], [[77.0]], [[66.0]], [[48.3]], [[60.0]], [[47.0]], [[19.72222222222222]], [[27.4]], [[31.8]], [[39.0]], [[30.0]], [[33.0]], [[29.0]], [[23.0]], [[25.0]], [[23.0]], [[26.0]], [[20.0]], [[10.125]], [[15.75]], [[16.666666666666668]], [[17.0]], [[16.0]], [[13.0]], [[4.5]], [[9.0]], [[3.0]], [[5.0]], [[2.0]]], "impurity": [618.6446124763706, 166.59566326530694, 26.888888888889596, 0.0, 0.0, 15.210000000000036, 0.0, 0.0, 107.20061728395069, 30.6400000000001, 15.3599999999999, 0.0, 3.0, 0.0, 0.0, 7.2000000000000455, 2.0, 0.0, 0.0, 0.0, 37.109375, 2.6875, 0.2222222222221717, 0.0, 0.0, 0.0, 8.25, 0.0, 2.0, 0.0, 0.0]}, {"children_left": [1, 2, -1, 4, -1, -1, 7, 8, 9, -1, -1, 12, -1, -1, 15, 16, 17, -1, -1, 20, -1, -1, 23, -1, -1], "children_right": [6, 3, -1, 5, -1, -1, 14, 11, 10, -1, -1, 13, -1, -1, 22, 19, 18, -1, -1, 21, -1, -1, 24, -1, -1], "feature": [96, 96, -2, 96, -2, -2, 96, 96, 39, -2, -2, 96, -2, -2, 94, 96, 95, -2, -2, 95, -2, -2, 64, -2, -2], "threshold": [3.5, 1.5, -2.0, 2.5, -2.0, -2.0, 9.0, 5.5, 0.5, -2.0, -2.0, 6.5, -2.0, -2.0, 14.5, 15.0, 4.5, -2.0, -2.0, 6.5, -2.0, -2.0, 0.5, -2.0, -2.0], "value": [[[47.95652173913044]], [[68.52380952380952]], [[77.0]], [[64.28571428571429]], [[66.0]], [[60.0]], [[30.68]], [[41.25]], [[45.75]], [[47.0]], [[42.0]], [[36.75]], [[39.0]], [[33.0]], [[11.88888888888889]], [[18.6]], [[21.0]], [[23.0]], [[20.0]], [[15.0]], [[17.0]], [[13.0]], [[3.5]], [[4.0]], [[2.0]]], "impurity": [503.56332703213593, 40.8208616780048, 0.0, 7.346938775509443, 0.0, 0.0, 238.45760000000007, 26.8125, 4.6875, 0.0, 0.0, 8.4375, 0.0, 0.0, 62.987654320987644, 11.43999999999994, 2.0, 0.0, 0.0, 4.0, 0.0, 0.0, 0.75, 0.0, 0.0]}, {"children_left": [1, 2, -1, 4, 5, -1, -1, -1, 9, 10, -1, -1, 13, 14, 15, -1, -1, 18, 19, -1, -1, -1, 23, -1, 25, -1, -1], "children_right": [8, 3, -1, 7, 6, -1, -1, -1, 12, 11, -1, -1, 22, 17, 16, -1, -1, 21, 20, -1, -1, -1, 24, -1, 26, -1, -1], "feature": [96, 96, -2, 96, 96, -2, -2, -2, 94, 47, -2, -2, 96, 94, 93, -2, -2, 93, 80, -2, -2, -2, 96, -2, 45, -2, -2], "threshold": [5.0, 1.5, -2.0, 3.5, 2.5, -2.0, -2.0, -2.0, 3.0, 0.5, -2.0, -2.0, 28.5, 5.0, 3.5, -2.0, -2.0, 4.5, 0.5, -2.0, -2.0, -2.0, 47.5, -2.0, 0.5, -2.0, -2.0], "value": [[[55.891304347826086]], [[67.37142857142857]], [[77.0]], [[60.95238095238095]], [[64.23529411764706]], [[66.0]], [[60.0]], [[47.0]], [[19.363636363636363]], [[35.666666666666664]], [[39.0]], [[29.0]], [[13.25]], [[17.8]], [[21.5]], [[20.0]], [[23.0]], [[15.333333333333334]], [[16.5]], [[16.0]], [[17.0]], [[13.0]], [[5.666666666666667]], [[8.0]], [[4.5]], [[4.0]], [[5.0]]], "impurity": [522.7925330812855, 92.91918367346989, 0.0, 51.8548752834472, 7.474048442906678, 0.0, 0.0, 0.0, 136.95867768595048, 22.2222222222224, 0.0, 0.0, 42.9375, 11.759999999999991, 2.25, 0.0, 0.0, 2.8888888888888573, 0.25, 0.0, 0.0, 0.0, 2.8888888888888857, 0.0, 0.25, 0.0, 0.0]}, {"children_left": [1, 2, 3, -1, -1, 6, -1, -1, 9, 10, 11, -1, -1, -1, 15, 16, -1, 18, 19, -1, -1, -1, 23, -1, 25, -1, -1], "children_right": [8, 5, 4, -1, -1, 7, -1, -1, 14, 13, 12, -1, -1, -1, 22, 17, -1, 21, 20, -1, -1, -1, 24, -1, 26, -1, -1], "feature": [96, 96, 96, -2, -2, 96, -2, -2, 96, 96, 94, -2, -2, -2, 94, 94, -2, 93, 93, -2, -2, -2, 95, -2, 95, -2, -2], "threshold": [4.5, 2.5, 1.5, -2.0, -2.0, 3.5, -2.0, -2.0, 10.5, 7.0, 1.5, -2.0, -2.0, -2.0, 9.5, 5.0, -2.0, 4.5, 2.0, -2.0, -2.0, -2.0, 17.0, -2.0, 20.0, -2.0, -2.0], "value": [[[53.58695652173913]], [[68.21875]], [[72.6]], [[77.0]], [[66.0]], [[52.57142857142857]], [[60.0]], [[47.0]], [[20.142857142857142]], [[35.6]], [[40.0]], [[42.0]], [[39.0]], [[29.0]], [[11.555555555555555]], [[17.2]], [[20.0]], [[15.333333333333334]], [[16.5]], [[16.0]], [[17.0]], [[13.0]], [[4.5]], [[8.0]], [[3.3333333333333335]], [[2.0]], [[4.0]]], "impurity": [611.7641776937612, 100.2958984375, 29.040000000000873, 0.0, 0.0, 41.38775510204141, 0.0, 0.0, 172.97959183673464, 30.23999999999978, 2.0, 0.0, 0.0, 0.0, 45.80246913580248, 6.960000000000036, 0.0, 2.8888888888888573, 0.25, 0.0, 0.0, 0.0, 4.75, 0.0, 0.8888888888888875, 0.0, 0.0]}, {"children_left": [1, 2, 3, -1, -1, 6, -1, -1, 9, 10, 11, 12, -1, -1, -1, 16, -1, -1, 19, 20, -1, -1, 23, 24, -1, -1, -1], "children_right": [8, 5, 4, -1, -1, 7, -1, -1, 18, 15, 14, 13, -1, -1, -1, 17, -1, -1, 22, 21, -1, -1, 26, 25, -1, -1, -1], "feature": [96, 96, 96, -2, -2, 0, -2, -2, 96, 96, 96, 96, -2, -2, -2, 19, -2, -2, 95, 94, -2, -2, 96, 33, -2, -2, -2], "threshold": [4.5, 2.5, 1.5, -2.0, -2.0, 0.5, -2.0, -2.0, 15.5, 7.5, 6.5, 5.5, -2.0, -2.0, -2.0, 0.5, -2.0, -2.0, 16.5, 9.0, -2.0, -2.0, 76.5, 0.5, -2.0, -2.0, -2.0], "value": [[[49.67391304347826]], [[68.46428571428571]], [[71.5]], [[77.0]], [[66.0]], [[50.25]], [[47.0]], [[60.0]], [[20.444444444444443]], [[31.6]], [[39.0]], [[40.5]], [[42.0]], [[39.0]], [[33.0]], [[24.2]], [[29.0]], [[23.0]], [[6.5]], [[9.25]], [[13.0]], [[8.0]], [[3.75]], [[4.333333333333333]], [[5.0]], [[4.0]], [[2.0]]], "impurity": [677.8284499054821, 85.74872448979659, 30.25, 0.0, 0.0, 31.6875, 0.0, 0.0, 195.24691358024694, 63.03999999999985, 10.799999999999955, 2.25, 0.0, 0.0, 0.0, 5.759999999999991, 0.0, 0.0, 10.5, 4.6875, 0.0, 0.0, 1.1875, 0.22222222222222499, 0.0, 0.0, 0.0]}, {"children_left": [1, 2, 3, -1, 5, -1, -1, -1, 9, 10, 11, -1, -1, 14, -1, 16, -1, -1, 19, 20, -1, 22, -1, -1, 25, 26, -1, -1, 29, 30, -1, -1, -1], "children_right": [8, 7, 4, -1, 6, -1, -1, -1, 18, 13, 12, -1, -1, 15, -1, 17, -1, -1, 24, 21, -1, 23, -1, -1, 28, 27, -1, -1, 32, 31, -1, -1, -1], "feature": [96, 96, 96, -2, 96, -2, -2, -2, 96, 96, 96, -2, -2, 93, -2, 44, -2, -2, 95, 94, -2, 89, -2, -2, 96, 95, -2, -2, 64, 94, -2, -2, -2], "threshold": [4.5, 3.5, 1.5, -2.0, 2.5, -2.0, -2.0, -2.0, 12.0, 7.0, 5.5, -2.0, -2.0, 3.0, -2.0, 0.5, -2.0, -2.0, 13.0, 5.0, -2.0, 0.5, -2.0, -2.0, 47.5, 15.0, -2.0, -2.0, 0.5, 17.5, -2.0, -2.0, -2.0], "value": [[[42.43478260869565]], [[62.04347826086956]], [[68.625]], [[77.0]], [[63.6]], [[66.0]], [[60.0]], [[47.0]], [[22.82608695652174]], [[32.23076923076923]], [[39.5]], [[42.0]], [[39.0]], [[26.0]], [[29.0]], [[24.8]], [[23.0]], [[26.0]], [[10.6]], [[18.25]], [[20.0]], [[16.5]], [[17.0]], [[16.0]], [[5.5]], [[8.5]], [[9.0]], [[8.0]], [[4.0]], [[4.666666666666667]], [[5.0]], [[4.0]], [[2.0]]], "impurity": [531.2457466918718, 132.0415879017014, 47.484375, 0.0, 8.639999999999873, 0.0, 0.0, 0.0, 161.44801512287336, 48.63905325443784, 1.25, 0.0, 0.0, 5.14285714285711, 0.0, 2.159999999999968, 0.0, 0.0, 43.64, 3.1875, 0.0, 0.25, 0.0, 0.0, 5.583333333333336, 0.25, 0.0, 0.0, 1.5, 0.22222222222221788, 0.0, 0.0, 0.0]}, {"children_left": [1, 2, 3, -1, 5, -1, -1, 8, -1, -1, 11, 12, 13, -1, -1, -1, 17, 18, -1, -1, 21, 22, -1, -1, -1], "children_right": [10, 7, 4, -1, 6, -1, -1, 9, -1, -1, 16, 15, 14, -1, -1, -1, 20, 19, -1, -1, 24, 23, -1, -1, -1], "feature": [96, 96, 96, -2, 96, -2, -2, 96, -2, -2, 93, 80, 96, -2, -2, -2, 96, 96, -2, -2, 64, 45, -2, -2, -2], "threshold": [6.5, 3.5, 1.5, -2.0, 2.5, -2.0, -2.0, 4.5, -2.0, -2.0, 5.0, 0.5, 8.5, -2.0, -2.0, -2.0, 47.0, 28.0, -2.0, -2.0, 0.5, 0.5, -2.0, -2.0, -2.0], "value": [[[47.76086956521739]], [[64.3225806451613]], [[69.79166666666667]], [[77.0]], [[63.69230769230769]], [[66.0]], [[60.0]], [[45.57142857142857]], [[47.0]], [[42.0]], [[13.533333333333333]], [[23.428571428571427]], [[28.25]], [[29.0]], [[26.0]], [[17.0]], [[4.875]], [[11.0]], [[13.0]], [[9.0]], [[2.8333333333333335]], [[4.5]], [[4.0]], [[5.0]], [[2.0]]], "impurity": [697.4428166351609, 141.31529656607654, 48.58159722222081, 0.0, 8.520710059171506, 0.0, 0.0, 5.102040816326735, 0.0, 0.0, 108.38222222222225, 31.95918367346951, 1.6875, 0.0, 0.0, 0.0, 14.609375, 4.0, 0.0, 0.0, 1.4722222222222214, 0.25, 0.0, 0.0, 0.0]}, {"children_left": [1, 2, -1, 4, -1, -1, 7, 8, -1, 10, 11, -1, -1, -1, 15, 16, 17, -1, -1, -1, 21, -1, 23, -1, -1], "children_right": [6, 3, -1, 5, -1, -1, 14, 9, -1, 13, 12, -1, -1, -1, 20, 19, 18, -1, -1, -1, 22, -1, 24, -1, -1], "feature": [96, 96, -2, 96, -2, -2, 94, 96, -2, 95, 96, -2, -2, -2, 95, 93, 93, -2, -2, -2, 94, -2, 33, -2, -2], "threshold": [3.5, 1.5, -2.0, 2.5, -2.0, -2.0, 3.5, 4.5, -2.0, 4.0, 5.5, -2.0, -2.0, -2.0, 13.0, 3.5, 2.0, -2.0, -2.0, -2.0, 13.0, -2.0, 0.5, -2.0, -2.0], "value": [[[54.630434782608695]], [[72.64285714285714]], [[77.0]], [[64.8]], [[66.0]], [[60.0]], [[26.61111111111111]], [[41.666666666666664]], [[47.0]], [[39.0]], [[40.2]], [[42.0]], [[39.0]], [[33.0]], [[11.555555555555555]], [[18.25]], [[16.666666666666668]], [[16.0]], [[17.0]], [[23.0]], [[6.2]], [[9.0]], [[4.333333333333333]], [[5.0]], [[4.0]]], "impurity": [627.6677693761817, 36.22959183673447, 0.0, 5.760000000000218, 0.0, 0.0, 257.9043209876543, 20.2222222222224, 0.0, 9.0, 2.1599999999998545, 0.0, 0.0, 0.0, 42.24691358024691, 7.6875, 0.2222222222221717, 0.0, 0.0, 0.0, 5.359999999999992, 0.0, 0.22222222222222499, 0.0, 0.0]}, {"children_left": [1, 2, -1, 4, -1, -1, 7, 8, 9, -1, 11, -1, -1, 14, -1, -1, 17, 18, -1, 20, -1, -1, 23, -1, -1], "children_right": [6, 3, -1, 5, -1, -1, 16, 13, 10, -1, 12, -1, -1, 15, -1, -1, 22, 19, -1, 21, -1, -1, 24, -1, -1], "feature": [96, 96, -2, 96, -2, -2, 96, 96, 96, -2, 96, -2, -2, 44, -2, -2, 96, 96, -2, 31, -2, -2, 94, -2, -2], "threshold": [3.5, 1.5, -2.0, 2.5, -2.0, -2.0, 14.5, 7.0, 4.5, -2.0, 5.5, -2.0, -2.0, 0.5, -2.0, -2.0, 47.5, 28.0, -2.0, 0.5, -2.0, -2.0, 17.5, -2.0, -2.0], "value": [[[55.28260869565217]], [[70.82758620689656]], [[77.0]], [[63.23076923076923]], [[66.0]], [[60.0]], [[28.764705882352942]], [[37.5]], [[44.0]], [[47.0]], [[40.0]], [[42.0]], [[39.0]], [[28.4]], [[29.0]], [[26.0]], [[7.8]], [[10.0]], [[13.0]], [[8.5]], [[9.0]], [[8.0]], [[4.5]], [[5.0]], [[4.0]]], "impurity": [530.6375236294898, 50.901307966705645, 0.0, 8.946745562129763, 0.0, 0.0, 233.5916955017301, 67.25, 12.85714285714289, 0.0, 2.0, 0.0, 0.0, 1.4400000000000546, 0.0, 0.0, 10.160000000000004, 4.666666666666671, 0.0, 0.25, 0.0, 0.0, 0.25, 0.0, 0.0]}, {"children_left": [1, 2, 3, -1, -1, 6, -1, 8, -1, -1, 11, 12, 13, -1, -1, 16, -1, -1, 19, 20, -1, -1, 23, 24, -1, -1, -1], "children_right": [10, 5, 4, -1, -1, 7, -1, 9, -1, -1, 18, 15, 14, -1, -1, 17, -1, -1, 22, 21, -1, -1, 26, 25, -1, -1, -1], "feature": [96, 96, 96, -2, -2, 96, -2, 95, -2, -2, 96, 95, 95, -2, -2, 89, -2, -2, 96, 31, -2, -2, 94, 45, -2, -2, -2], "threshold": [8.0, 2.5, 1.5, -2.0, -2.0, 3.5, -2.0, 2.5, -2.0, -2.0, 28.0, 6.5, 4.5, -2.0, -2.0, 0.5, -2.0, -2.0, 47.5, 0.5, -2.0, -2.0, 26.5, 0.5, -2.0, -2.0, -2.0], "value": [[[46.56521739130435]], [[66.75862068965517]], [[71.5]], [[77.0]], [[66.0]], [[51.857142857142854]], [[60.0]], [[45.75]], [[47.0]], [[42.0]], [[12.117647058823529]], [[19.625]], [[22.4]], [[23.0]], [[20.0]], [[15.0]], [[13.0]], [[16.0]], [[5.444444444444445]], [[8.666666666666666]], [[9.0]], [[8.0]], [[3.8333333333333335]], [[4.2]], [[4.0]], [[5.0]], [[2.0]]], "impurity": [784.7674858223058, 106.25208085612394, 30.25, 0.0, 0.0, 52.408163265306484, 0.0, 4.6875, 0.0, 0.0, 59.98615916955018, 14.484375, 1.4400000000000546, 0.0, 0.0, 2.0, 0.0, 0.0, 5.802469135802465, 0.22222222222222854, 0.0, 0.0, 0.8055555555555536, 0.16000000000000014, 0.0, 0.0, 0.0]}, {"children_left": [1, 2, -1, 4, -1, -1, 7, 8, 9, -1, 11, -1, -1, 14, -1, -1, 17, 18, -1, -1, 21, -1, -1], "children_right": [6, 3, -1, 5, -1, -1, 16, 13, 10, -1, 12, -1, -1, 15, -1, -1, 20, 19, -1, -1, 22, -1, -1], "feature": [96, 96, -2, 96, -2, -2, 96, 96, 95, -2, 96, -2, -2, 44, -2, -2, 94, 94, -2, -2, 95, -2, -2], "threshold": [3.5, 1.5, -2.0, 2.5, -2.0, -2.0, 13.0, 7.0, 1.0, -2.0, 5.5, -2.0, -2.0, 0.5, -2.0, -2.0, 10.0, 7.5, -2.0, -2.0, 18.0, -2.0, -2.0], "value": [[[58.04347826086956]], [[71.45454545454545]], [[77.0]], [[64.8]], [[66.0]], [[60.0]], [[24.0]], [[37.0]], [[41.75]], [[47.0]], [[40.0]], [[42.0]], [[39.0]], [[27.5]], [[29.0]], [[26.0]], [[12.857142857142858]], [[15.4]], [[13.0]], [[17.0]], [[6.5]], [[9.0]], [[4.0]]], "impurity": [535.9111531190929, 39.52066115702473, 0.0, 5.760000000000218, 0.0, 0.0, 180.46153846153845, 53.0, 10.6875, 0.0, 2.0, 0.0, 0.0, 2.25, 0.0, 0.0, 20.693877551020393, 3.839999999999975, 0.0, 0.0, 6.25, 0.0, 0.0]}, {"children_left": [1, 2, 3, -1, 5, -1, -1, 8, -1, -1, 11, 12, 13, 14, -1, -1, -1, -1, 19, 20, -1, -1, 23, -1, 25, -1, -1], "children_right": [10, 7, 4, -1, 6, -1, -1, 9, -1, -1, 18, 17, 16, 15, -1, -1, -1, -1, 22, 21, -1, -1, 24, -1, 26, -1, -1], "feature": [96, 96, 96, -2, 93, -2, -2, 39, -2, -2, 95, 12, 30, 82, -2, -2, -2, -2, 94, 89, -2, -2, 94, -2, 95, -2, -2], "threshold": [5.5, 3.5, 1.5, -2.0, 1.5, -2.0, -2.0, 0.5, -2.0, -2.0, 6.5, 0.5, 0.5, 0.5, -2.0, -2.0, -2.0, -2.0, 9.5, 0.5, -2.0, -2.0, 13.0, -2.0, 17.5, -2.0, -2.0], "value": [[[43.5]], [[66.03846153846153]], [[69.95454545454545]], [[77.0]], [[65.07692307692308]], [[66.0]], [[60.0]], [[44.5]], [[47.0]], [[42.0]], [[14.2]], [[26.2]], [[23.0]], [[21.0]], [[23.0]], [[20.0]], [[29.0]], [[39.0]], [[10.2]], [[14.5]], [[13.0]], [[16.0]], [[5.285714285714286]], [[9.0]], [[3.8]], [[5.0]], [[2.0]]], "impurity": [761.2065217391305, 116.7292899408294, 37.134297520660766, 0.0, 4.686390532543555, 0.0, 0.0, 6.25, 0.0, 0.0, 80.16000000000003, 51.760000000000105, 13.5, 2.0, 0.0, 0.0, 0.0, 0.0, 25.626666666666665, 2.25, 0.0, 0.0, 7.061224489795919, 0.0, 2.160000000000002, 0.0, 0.0]}, {"children_left": [1, 2, -1, 4, -1, -1, 7, 8, -1, 10, -1, -1, 13, 14, -1, -1, 17, -1, 19, -1, -1], "children_right": [6, 3, -1, 5, -1, -1, 12, 9, -1, 11, -1, -1, 16, 15, -1, -1, 18, -1, 20, -1, -1], "feature": [96, 96, -2, 96, -2, -2, 93, 96, -2, 96, -2, -2, 94, 19, -2, -2, 95, -2, 59, -2, -2], "threshold": [3.5, 1.5, -2.0, 2.5, -2.0, -2.0, 3.5, 4.5, -2.0, 5.5, -2.0, -2.0, 5.5, 0.5, -2.0, -2.0, 10.5, -2.0, 0.5, -2.0, -2.0], "value": [[[54.43478260869565]], [[70.85185185185185]], [[77.0]], [[65.14285714285714]], [[66.0]], [[60.0]], [[31.105263157894736]], [[44.36363636363637]], [[47.0]], [[39.75]], [[42.0]], [[39.0]], [[12.875]], [[24.5]], [[26.0]], [[23.0]], [[9.0]], [[13.0]], [[8.2]], [[5.0]], [[9.0]]], "impurity": [516.4631379962198, 37.3854595336079, 0.0, 4.408163265306939, 0.0, 0.0, 269.98891966759015, 12.776859504132062, 0.0, 1.6875, 0.0, 0.0, 49.609375, 2.25, 0.0, 0.0, 5.333333333333329, 0.0, 2.5600000000000023, 0.0, 0.0]}, {"children_left": [1, 2, 3, -1, 5, -1, -1, 8, -1, -1, 11, 12, 13, -1, -1, 16, -1, -1, 19, 20, -1, -1, 23, 24, -1, -1, -1], "children_right": [10, 7, 4, -1, 6, -1, -1, 9, -1, -1, 18, 15, 14, -1, -1, 17, -1, -1, 22, 21, -1, -1, 26, 25, -1, -1, -1], "feature": [96, 96, 96, -2, 96, -2, -2, 95, -2, -2, 94, 96, 3, -2, -2, 19, -2, -2, 96, 89, -2, -2, 59, 33, -2, -2, -2], "threshold": [6.0, 3.5, 1.5, -2.0, 2.5, -2.0, -2.0, 2.5, -2.0, -2.0, 5.5, 8.5, 0.5, -2.0, -2.0, 0.5, -2.0, -2.0, 28.0, 0.5, -2.0, -2.0, 0.5, 0.5, -2.0, -2.0, -2.0], "value": [[[47.95652173913044]], [[62.41935483870968]], [[68.0]], [[77.0]], [[63.2]], [[66.0]], [[60.0]], [[46.375]], [[47.0]], [[42.0]], [[18.066666666666666]], [[28.166666666666668]], [[30.0]], [[29.0]], [[33.0]], [[24.5]], [[26.0]], [[23.0]], [[11.333333333333334]], [[14.0]], [[13.0]], [[16.0]], [[6.0]], [[4.5]], [[5.0]], [[4.0]], [[9.0]]], "impurity": [544.3894139886579, 126.63059313215399, 49.04347826086996, 0.0, 8.959999999999582, 0.0, 0.0, 2.734375, 0.0, 0.0, 82.0622222222222, 9.472222222222172, 3.0, 0.0, 0.0, 2.25, 0.0, 0.0, 17.111111111111086, 2.0, 0.0, 0.0, 4.666666666666664, 0.25, 0.0, 0.0, 0.0]}, {"children_left": [1, 2, -1, 4, -1, -1, 7, 8, -1, 10, 11, -1, -1, -1, 15, 16, 17, -1, -1, 20, -1, -1, 23, 24, -1, -1, -1], "children_right": [6, 3, -1, 5, -1, -1, 14, 9, -1, 13, 12, -1, -1, -1, 22, 19, 18, -1, -1, 21, -1, -1, 26, 25, -1, -1, -1], "feature": [96, 96, -2, 95, -2, -2, 96, 96, -2, 96, 39, -2, -2, -2, 96, 96, 94, -2, -2, 82, -2, -2, 93, 89, -2, -2, -2], "threshold": [3.5, 1.5, -2.0, 1.5, -2.0, -2.0, 7.5, 4.5, -2.0, 6.5, 0.5, -2.0, -2.0, -2.0, 16.0, 10.0, 3.0, -2.0, -2.0, 0.5, -2.0, -2.0, 8.0, 0.5, -2.0, -2.0, -2.0], "value": [[[52.58695652173913]], [[67.61538461538461]], [[77.0]], [[64.8]], [[66.0]], [[60.0]], [[33.05]], [[42.75]], [[47.0]], [[38.5]], [[39.6]], [[39.0]], [[42.0]], [[33.0]], [[18.5]], [[24.5]], [[27.5]], [[26.0]], [[29.0]], [[21.5]], [[23.0]], [[20.0]], [[12.5]], [[14.0]], [[13.0]], [[16.0]], [[8.0]]], "impurity": [386.02504725897916, 30.852071005917423, 0.0, 5.760000000000218, 0.0, 0.0, 172.44750000000022, 21.6875, 0.0, 7.25, 1.4399999999998272, 0.0, 0.0, 0.0, 45.75, 11.25, 2.25, 0.0, 0.0, 2.25, 0.0, 0.0, 8.25, 2.0, 0.0, 0.0, 0.0]}, {"children_left": [1, 2, -1, 4, -1, -1, 7, 8, 9, -1, -1, 12, -1, 14, -1, -1, 17, 18, 19, -1, -1, 22, 23, -1, -1, -1, 27, -1, -1], "children_right": [6, 3, -1, 5, -1, -1, 16, 11, 10, -1, -1, 13, -1, 15, -1, -1, 26, 21, 20, -1, -1, 25, 24, -1, -1, -1, 28, -1, -1], "feature": [96, 96, -2, 96, -2, -2, 96, 96, 96, -2, -2, 96, -2, 47, -2, -2, 96, 94, 82, -2, -2, 37, 94, -2, -2, -2, 95, -2, -2], "threshold": [3.5, 1.5, -2.0, 2.5, -2.0, -2.0, 9.5, 5.5, 4.5, -2.0, -2.0, 6.5, -2.0, 0.5, -2.0, -2.0, 28.0, 5.0, 0.5, -2.0, -2.0, 0.5, 7.0, -2.0, -2.0, -2.0, 15.5, -2.0, -2.0], "value": [[[53.80434782608695]], [[71.0]], [[77.0]], [[63.5]], [[66.0]], [[60.0]], [[29.36842105263158]], [[40.90909090909091]], [[46.166666666666664]], [[47.0]], [[42.0]], [[34.6]], [[39.0]], [[31.666666666666668]], [[33.0]], [[29.0]], [[13.5]], [[17.8]], [[21.5]], [[23.0]], [[20.0]], [[15.333333333333334]], [[16.5]], [[16.0]], [[17.0]], [[13.0]], [[6.333333333333333]], [[9.0]], [[5.0]]], "impurity": [541.4182419659737, 48.88888888888869, 0.0, 8.75, 0.0, 0.0, 224.02216066482003, 41.900826446281144, 3.4722222222226264, 0.0, 0.0, 15.039999999999964, 0.0, 3.555555555555543, 0.0, 0.0, 39.5, 11.759999999999991, 2.25, 0.0, 0.0, 2.8888888888888573, 0.25, 0.0, 0.0, 0.0, 3.555555555555557, 0.0, 0.0]}, {"children_left": [1, 2, 3, -1, -1, 6, -1, -1, 9, 10, 11, -1, -1, -1, 15, 16, 17, 18, -1, -1, -1, -1, 23, 24, -1, -1, -1], "children_right": [8, 5, 4, -1, -1, 7, -1, -1, 14, 13, 12, -1, -1, -1, 22, 21, 20, 19, -1, -1, -1, -1, 26, 25, -1, -1, -1], "feature": [96, 96, 96, -2, -2, 96, -2, -2, 95, 96, 39, -2, -2, -2, 94, 37, 82, 89, -2, -2, -2, -2, 94, 96, -2, -2, -2], "threshold": [4.5, 2.5, 1.5, -2.0, -2.0, 3.5, -2.0, -2.0, 5.5, 6.5, 0.5, -2.0, -2.0, -2.0, 9.5, 0.5, 0.5, 0.5, -2.0, -2.0, -2.0, -2.0, 16.5, 36.5, -2.0, -2.0, -2.0], "value": [[[50.71739130434783]], [[67.10344827586206]], [[72.28571428571429]], [[77.0]], [[66.0]], [[53.5]], [[60.0]], [[47.0]], [[22.764705882352942]], [[39.0]], [[40.0]], [[39.0]], [[42.0]], [[33.0]], [[11.4]], [[16.5]], [[17.666666666666668]], [[16.5]], [[17.0]], [[16.0]], [[20.0]], [[13.0]], [[8.0]], [[8.8]], [[9.0]], [[8.0]], [[4.0]]], "impurity": [597.4636105860113, 103.60998810939418, 29.63265306122412, 0.0, 0.0, 42.25, 0.0, 0.0, 200.53287197231828, 7.714285714285779, 2.0, 0.0, 0.0, 0.0, 21.840000000000003, 6.25, 2.8888888888888573, 0.25, 0.0, 0.0, 0.0, 0.0, 3.3333333333333286, 0.15999999999998238, 0.0, 0.0, 0.0]}, {"children_left": [1, 2, 3, -1, -1, 6, -1, -1, 9, 10, 11, -1, 13, -1, -1, 16, -1, -1, 19, 20, -1, -1, 23, 24, -1, -1, -1], "children_right": [8, 5, 4, -1, -1, 7, -1, -1, 18, 15, 12, -1, 14, -1, -1, 17, -1, -1, 22, 21, -1, -1, 26, 25, -1, -1, -1], "feature": [96, 96, 96, -2, -2, 96, -2, -2, 94, 96, 96, -2, 30, -2, -2, 82, -2, -2, 93, 80, -2, -2, 33, 59, -2, -2, -2], "threshold": [5.0, 2.5, 1.5, -2.0, -2.0, 3.5, -2.0, -2.0, 5.5, 9.5, 6.5, -2.0, 0.5, -2.0, -2.0, 0.5, -2.0, -2.0, 6.5, 0.5, -2.0, -2.0, 0.5, 0.5, -2.0, -2.0, -2.0], "value": [[[48.32608695652174]], [[66.55172413793103]], [[71.0]], [[77.0]], [[66.0]], [[52.57142857142857]], [[60.0]], [[47.0]], [[17.235294117647058]], [[27.142857142857142]], [[33.666666666666664]], [[39.0]], [[31.0]], [[33.0]], [[29.0]], [[22.25]], [[23.0]], [[20.0]], [[10.3]], [[16.333333333333332]], [[16.0]], [[17.0]], [[7.714285714285714]], [[8.333333333333334]], [[8.0]], [[9.0]], [[4.0]]], "impurity": [661.7849716446121, 94.93697978596902, 30.0, 0.0, 0.0, 41.38775510204141, 0.0, 0.0, 95.47404844290656, 40.12244897959192, 16.888888888888914, 0.0, 4.0, 0.0, 0.0, 1.6875, 0.0, 0.0, 17.409999999999982, 0.22222222222228538, 0.0, 0.0, 2.489795918367342, 0.22222222222221433, 0.0, 0.0, 0.0]}, {"children_left": [1, 2, 3, -1, 5, -1, -1, -1, 9, 10, -1, -1, 13, 14, 15, 16, -1, -1, -1, 20, 21, -1, -1, -1, 25, -1, 27, -1, -1], "children_right": [8, 7, 4, -1, 6, -1, -1, -1, 12, 11, -1, -1, 24, 19, 18, 17, -1, -1, -1, 23, 22, -1, -1, -1, 26, -1, 28, -1, -1], "feature": [96, 96, 96, -2, 96, -2, -2, -2, 96, 96, -2, -2, 93, 96, 82, 95, -2, -2, -2, 96, 94, -2, -2, -2, 94, -2, 64, -2, -2], "threshold": [4.5, 3.5, 1.5, -2.0, 2.5, -2.0, -2.0, -2.0, 7.5, 5.5, -2.0, -2.0, 8.0, 15.0, 0.5, 3.5, -2.0, -2.0, -2.0, 19.5, 7.0, -2.0, -2.0, -2.0, 16.0, -2.0, 0.5, -2.0, -2.0], "value": [[[45.0]], [[64.12]], [[68.4]], [[77.0]], [[64.71428571428571]], [[66.0]], [[60.0]], [[47.0]], [[22.238095238095237]], [[40.0]], [[42.0]], [[39.0]], [[15.133333333333333]], [[19.181818181818183]], [[22.0]], [[24.0]], [[23.0]], [[26.0]], [[20.0]], [[15.8]], [[16.5]], [[16.0]], [[17.0]], [[13.0]], [[4.0]], [[8.0]], [[2.6666666666666665]], [[4.0]], [[2.0]]], "impurity": [566.913043478261, 102.02559999999903, 35.9399999999996, 0.0, 6.061224489796587, 0.0, 0.0, 0.0, 167.03854875283452, 2.0, 0.0, 0.0, 56.382222222222225, 13.23966942148752, 5.0, 2.0, 0.0, 0.0, 0.0, 2.1599999999999966, 0.25, 0.0, 0.0, 0.0, 6.0, 0.0, 0.8888888888888893, 0.0, 0.0]}, {"children_left": [1, 2, 3, -1, -1, 6, -1, -1, 9, 10, 11, -1, -1, 14, 15, -1, -1, 18, -1, -1, 21, 22, -1, -1, 25, -1, 27, -1, -1], "children_right": [8, 5, 4, -1, -1, 7, -1, -1, 20, 13, 12, -1, -1, 17, 16, -1, -1, 19, -1, -1, 24, 23, -1, -1, 26, -1, 28, -1, -1], "feature": [96, 96, 96, -2, -2, 96, -2, -2, 94, 96, 39, -2, -2, 93, 96, -2, -2, 44, -2, -2, 96, 93, -2, -2, 94, -2, 94, -2, -2], "threshold": [4.5, 2.5, 1.5, -2.0, -2.0, 3.5, -2.0, -2.0, 6.0, 6.5, 0.5, -2.0, -2.0, 3.0, 7.5, -2.0, -2.0, 0.5, -2.0, -2.0, 28.5, 4.5, -2.0, -2.0, 16.0, -2.0, 26.5, -2.0, -2.0], "value": [[[45.56521739130435]], [[65.96]], [[71.82352941176471]], [[77.0]], [[66.0]], [[53.5]], [[60.0]], [[47.0]], [[21.285714285714285]], [[31.916666666666668]], [[39.75]], [[39.0]], [[42.0]], [[28.0]], [[29.8]], [[33.0]], [[29.0]], [[25.0]], [[23.0]], [[26.0]], [[7.111111111111111]], [[15.0]], [[17.0]], [[13.0]], [[4.857142857142857]], [[8.0]], [[3.6]], [[4.0]], [[2.0]]], "impurity": [635.9848771266538, 107.07840000000124, 30.145328719722784, 0.0, 0.0, 42.25, 0.0, 0.0, 180.96598639455783, 36.40972222222206, 1.6875, 0.0, 0.0, 7.75, 2.5599999999999454, 0.0, 0.0, 2.0, 0.0, 0.0, 22.098765432098773, 4.0, 0.0, 0.0, 4.408163265306126, 0.0, 0.6399999999999988, 0.0, 0.0]}, {"children_left": [1, 2, 3, -1, -1, 6, -1, 8, -1, -1, 11, 12, -1, 14, -1, -1, 17, 18, -1, -1, 21, -1, 23, -1, -1], "children_right": [10, 5, 4, -1, -1, 7, -1, 9, -1, -1, 16, 13, -1, 15, -1, -1, 20, 19, -1, -1, 22, -1, 24, -1, -1], "feature": [96, 96, 96, -2, -2, 96, -2, 96, -2, -2, 94, 96, -2, 93, -2, -2, 94, 94, -2, -2, 95, -2, 94, -2, -2], "threshold": [5.5, 2.5, 1.5, -2.0, -2.0, 3.5, -2.0, 4.5, -2.0, -2.0, 5.0, 7.5, -2.0, 3.5, -2.0, -2.0, 9.5, 6.5, -2.0, -2.0, 15.5, -2.0, 17.5, -2.0, -2.0], "value": [[[52.869565217391305]], [[66.20588235294117]], [[73.33333333333333]], [[77.0]], [[66.0]], [[49.1]], [[60.0]], [[46.375]], [[47.0]], [[42.0]], [[15.083333333333334]], [[26.25]], [[39.0]], [[22.0]], [[20.0]], [[26.0]], [[9.5]], [[15.0]], [[16.0]], [[13.0]], [[6.2]], [[9.0]], [[4.333333333333333]], [[5.0]], [[4.0]]], "impurity": [640.3742911153122, 150.28114186851235, 26.888888888889596, 0.0, 0.0, 31.889999999999873, 0.0, 2.734375, 0.0, 0.0, 97.24305555555554, 60.1875, 0.0, 8.0, 0.0, 0.0, 22.25, 2.0, 0.0, 0.0, 5.359999999999992, 0.0, 0.22222222222222499, 0.0, 0.0]}, {"children_left": [1, 2, 3, -1, -1, 6, -1, -1, 9, 10, 11, -1, -1, 14, -1, -1, 17, 18, -1, -1, 21, -1, 23, -1, -1], "children_right": [8, 5, 4, -1, -1, 7, -1, -1, 16, 13, 12, -1, -1, 15, -1, -1, 20, 19, -1, -1, 22, -1, 24, -1, -1], "feature": [96, 96, 96, -2, -2, 96, -2, -2, 95, 96, 3, -2, -2, 19, -2, -2, 95, 80, -2, -2, 96, -2, 96, -2, -2], "threshold": [5.0, 2.5, 1.5, -2.0, -2.0, 3.5, -2.0, -2.0, 5.5, 8.0, 0.5, -2.0, -2.0, 0.5, -2.0, -2.0, 14.0, 0.5, -2.0, -2.0, 51.0, -2.0, 76.5, -2.0, -2.0], "value": [[[50.108695652173914]], [[65.29032258064517]], [[72.72222222222223]], [[77.0]], [[66.0]], [[55.0]], [[60.0]], [[47.0]], [[18.733333333333334]], [[32.166666666666664]], [[36.0]], [[39.0]], [[33.0]], [[24.5]], [[26.0]], [[23.0]], [[9.777777777777779]], [[16.5]], [[16.0]], [[17.0]], [[4.4]], [[8.0]], [[3.5]], [[4.0]], [[2.0]]], "impurity": [601.8794896030245, 109.94797086368271, 28.75617283950487, 0.0, 0.0, 40.0, 0.0, 0.0, 157.79555555555555, 36.138888888888914, 9.0, 0.0, 0.0, 2.25, 0.0, 0.0, 38.39506172839505, 0.25, 0.0, 0.0, 3.8399999999999963, 0.0, 0.75, 0.0, 0.0]}, {"children_left": [1, 2, 3, -1, 5, -1, -1, -1, 9, 10, -1, -1, 13, 14, 15, -1, 17, -1, -1, -1, 21, -1, 23, -1, -1], "children_right": [8, 7, 4, -1, 6, -1, -1, -1, 12, 11, -1, -1, 20, 19, 16, -1, 18, -1, -1, -1, 22, -1, 24, -1, -1], "feature": [96, 96, 96, -2, 96, -2, -2, -2, 96, 96, -2, -2, 96, 37, 96, -2, 89, -2, -2, -2, 94, -2, 93, -2, -2], "threshold": [5.0, 3.5, 1.5, -2.0, 2.5, -2.0, -2.0, -2.0, 10.5, 7.0, -2.0, -2.0, 28.5, 0.5, 15.0, -2.0, 0.5, -2.0, -2.0, -2.0, 16.0, -2.0, 30.0, -2.0, -2.0], "value": [[[48.58695652173913]], [[65.83333333333333]], [[70.54166666666667]], [[77.0]], [[65.07692307692308]], [[66.0]], [[60.0]], [[47.0]], [[16.25]], [[32.333333333333336]], [[39.0]], [[29.0]], [[12.538461538461538]], [[16.11111111111111]], [[17.666666666666668]], [[20.0]], [[16.5]], [[17.0]], [[16.0]], [[13.0]], [[4.5]], [[8.0]], [[3.3333333333333335]], [[4.0]], [[2.0]]], "impurity": [667.3293950850662, 118.93888888888887, 37.83159722222081, 0.0, 4.686390532543555, 0.0, 0.0, 0.0, 92.1875, 22.22222222222217, 0.0, 0.0, 34.86390532544377, 6.765432098765416, 2.8888888888888573, 0.0, 0.25, 0.0, 0.0, 0.0, 4.75, 0.0, 0.8888888888888875, 0.0, 0.0]}, {"children_left": [1, 2, -1, 4, -1, -1, 7, 8, 9, -1, 11, -1, -1, -1, 15, 16, -1, -1, 19, -1, 21, -1, -1], "children_right": [6, 3, -1, 5, -1, -1, 14, 13, 10, -1, 12, -1, -1, -1, 18, 17, -1, -1, 20, -1, 22, -1, -1], "feature": [96, 96, -2, 96, -2, -2, 96, 96, 96, -2, 96, -2, -2, -2, 95, 93, -2, -2, 96, -2, 33, -2, -2], "threshold": [3.5, 1.5, -2.0, 2.5, -2.0, -2.0, 9.5, 7.0, 4.5, -2.0, 5.5, -2.0, -2.0, -2.0, 14.0, 2.5, -2.0, -2.0, 47.5, -2.0, 0.5, -2.0, -2.0], "value": [[[50.869565217391305]], [[70.04166666666667]], [[77.0]], [[64.15384615384616]], [[66.0]], [[60.0]], [[29.954545454545453]], [[40.5]], [[43.63636363636363]], [[47.0]], [[39.6]], [[42.0]], [[39.0]], [[29.0]], [[11.5]], [[17.75]], [[16.0]], [[23.0]], [[5.25]], [[8.0]], [[4.333333333333333]], [[5.0]], [[4.0]]], "impurity": [539.8090737240077, 45.12326388888778, 0.0, 7.668639053253173, 0.0, 0.0, 241.0433884297521, 47.25, 14.231404958677786, 0.0, 1.4399999999998272, 0.0, 0.0, 0.0, 45.0, 9.1875, 0.0, 0.0, 2.6875, 0.0, 0.22222222222222499, 0.0, 0.0]}, {"children_left": [1, 2, -1, 4, 5, -1, -1, -1, 9, 10, 11, -1, -1, -1, 15, 16, -1, 18, -1, -1, -1], "children_right": [8, 3, -1, 7, 6, -1, -1, -1, 14, 13, 12, -1, -1, -1, 20, 17, -1, 19, -1, -1, -1], "feature": [95, 96, -2, 96, 96, -2, -2, -2, 94, 96, 96, -2, -2, -2, 93, 94, -2, 95, -2, -2, -2], "threshold": [2.5, 1.5, -2.0, 3.5, 2.5, -2.0, -2.0, -2.0, 4.5, 7.5, 5.5, -2.0, -2.0, -2.0, 18.5, 9.0, -2.0, 15.0, -2.0, -2.0, -2.0], "value": [[[56.30434782608695]], [[67.68571428571428]], [[77.0]], [[60.7]], [[64.125]], [[66.0]], [[60.0]], [[47.0]], [[20.09090909090909]], [[34.4]], [[40.0]], [[42.0]], [[39.0]], [[26.0]], [[8.166666666666666]], [[9.75]], [[13.0]], [[8.666666666666666]], [[9.0]], [[8.0]], [[5.0]]], "impurity": [531.7769376181477, 95.41551020408133, 0.0, 53.10999999999967, 7.734375, 0.0, 0.0, 0.0, 196.62809917355372, 48.24000000000001, 2.0, 0.0, 0.0, 0.0, 7.472222222222243, 3.6875, 0.0, 0.22222222222222854, 0.0, 0.0, 0.0]}, {"children_left": [1, 2, -1, 4, -1, -1, 7, 8, 9, -1, -1, -1, 13, 14, 15, -1, -1, -1, 19, 20, -1, -1, 23, -1, -1], "children_right": [6, 3, -1, 5, -1, -1, 12, 11, 10, -1, -1, -1, 18, 17, 16, -1, -1, -1, 22, 21, -1, -1, 24, -1, -1], "feature": [96, 96, -2, 79, -2, -2, 96, 96, 95, -2, -2, -2, 94, 19, 44, -2, -2, -2, 93, 94, -2, -2, 94, -2, -2], "threshold": [3.5, 1.5, -2.0, 0.5, -2.0, -2.0, 7.5, 6.0, 2.5, -2.0, -2.0, -2.0, 6.0, 0.5, 0.5, -2.0, -2.0, -2.0, 16.0, 9.5, -2.0, -2.0, 17.5, -2.0, -2.0], "value": [[[53.891304347826086]], [[71.07407407407408]], [[77.0]], [[65.57142857142857]], [[66.0]], [[60.0]], [[29.473684210526315]], [[43.22222222222222]], [[44.5]], [[47.0]], [[42.0]], [[33.0]], [[17.1]], [[25.4]], [[27.0]], [[29.0]], [[26.0]], [[23.0]], [[8.8]], [[11.666666666666666]], [[13.0]], [[9.0]], [[4.5]], [[5.0]], [[4.0]]], "impurity": [530.444706994329, 33.84636488340129, 0.0, 2.3877551020414103, 0.0, 0.0, 220.35457063711908, 18.61728395061732, 6.25, 0.0, 0.0, 0.0, 78.69, 5.040000000000077, 2.0, 0.0, 0.0, 0.0, 14.559999999999988, 3.5555555555555713, 0.0, 0.0, 0.25, 0.0, 0.0]}, {"children_left": [1, 2, -1, 4, -1, -1, 7, 8, -1, 10, 11, -1, -1, -1, 15, 16, 17, -1, -1, 20, -1, -1, 23, -1, -1], "children_right": [6, 3, -1, 5, -1, -1, 14, 9, -1, 13, 12, -1, -1, -1, 22, 19, 18, -1, -1, 21, -1, -1, 24, -1, -1], "feature": [96, 96, -2, 0, -2, -2, 94, 96, -2, 96, 96, -2, -2, -2, 96, 96, 95, -2, -2, 80, -2, -2, 45, -2, -2], "threshold": [3.5, 1.5, -2.0, 0.5, -2.0, -2.0, 3.5, 4.5, -2.0, 6.5, 5.5, -2.0, -2.0, -2.0, 28.0, 15.0, 4.5, -2.0, -2.0, 0.5, -2.0, -2.0, 0.5, -2.0, -2.0], "value": [[[47.54347826086956]], [[68.33333333333333]], [[77.0]], [[65.625]], [[66.0]], [[60.0]], [[30.08]], [[41.857142857142854]], [[47.0]], [[39.0]], [[39.75]], [[42.0]], [[39.0]], [[33.0]], [[15.090909090909092]], [[18.125]], [[21.0]], [[23.0]], [[20.0]], [[16.4]], [[16.0]], [[17.0]], [[7.0]], [[8.0]], [[5.0]]], "impurity": [483.1176748582234, 25.079365079365743, 0.0, 2.109375, 0.0, 0.0, 199.83360000000016, 18.551020408163595, 0.0, 6.0, 1.6875, 0.0, 0.0, 0.0, 29.355371900826384, 5.859375, 2.0, 0.0, 0.0, 0.2400000000000091, 0.0, 0.0, 2.0, 0.0, 0.0]}, {"children_left": [1, 2, 3, -1, -1, 6, -1, -1, 9, 10, 11, -1, -1, 14, -1, 16, -1, -1, 19, 20, 21, -1, -1, -1, 25, 26, -1, -1, 29, -1, -1], "children_right": [8, 5, 4, -1, -1, 7, -1, -1, 18, 13, 12, -1, -1, 15, -1, 17, -1, -1, 24, 23, 22, -1, -1, -1, 28, 27, -1, -1, 30, -1, -1], "feature": [96, 96, 96, -2, -2, 96, -2, -2, 96, 96, 95, -2, -2, 96, -2, 82, -2, -2, 95, 96, 95, -2, -2, -2, 95, 95, -2, -2, 45, -2, -2], "threshold": [5.5, 2.5, 1.5, -2.0, -2.0, 3.5, -2.0, -2.0, 15.0, 8.5, 3.0, -2.0, -2.0, 10.0, -2.0, 0.5, -2.0, -2.0, 13.0, 19.5, 9.0, -2.0, -2.0, -2.0, 16.5, 15.0, -2.0, -2.0, 0.5, -2.0, -2.0], "value": [[[45.93478260869565]], [[67.88461538461539]], [[73.52631578947368]], [[77.0]], [[66.0]], [[52.57142857142857]], [[60.0]], [[47.0]], [[17.4]], [[26.25]], [[31.666666666666668]], [[29.0]], [[33.0]], [[23.0]], [[26.0]], [[21.0]], [[23.0]], [[20.0]], [[11.5]], [[16.166666666666668]], [[16.8]], [[17.0]], [[16.0]], [[13.0]], [[6.833333333333333]], [[8.5]], [[9.0]], [[8.0]], [[3.5]], [[2.0]], [[5.0]]], "impurity": [725.8435727788283, 116.6405325443784, 26.144044321329602, 0.0, 0.0, 41.38775510204141, 0.0, 0.0, 77.24000000000007, 23.4375, 3.555555555555543, 0.0, 0.0, 7.2000000000000455, 0.0, 2.0, 0.0, 0.0, 26.083333333333343, 2.1388888888888573, 0.15999999999996817, 0.0, 0.0, 0.0, 6.472222222222221, 0.25, 0.0, 0.0, 2.25, 0.0, 0.0]}, {"children_left": [1, 2, -1, 4, 5, -1, -1, -1, 9, 10, 11, 12, -1, -1, -1, 16, -1, -1, 19, 20, 21, -1, -1, -1, 25, -1, 27, 28, -1, -1, -1], "children_right": [8, 3, -1, 7, 6, -1, -1, -1, 18, 15, 14, 13, -1, -1, -1, 17, -1, -1, 24, 23, 22, -1, -1, -1, 26, -1, 30, 29, -1, -1, -1], "feature": [96, 96, -2, 96, 93, -2, -2, -2, 95, 96, 3, 39, -2, -2, -2, 44, -2, -2, 95, 96, 82, -2, -2, -2, 95, -2, 96, 95, -2, -2, -2], "threshold": [4.5, 1.5, -2.0, 3.5, 1.5, -2.0, -2.0, -2.0, 5.5, 8.0, 0.5, 0.5, -2.0, -2.0, -2.0, 0.5, -2.0, -2.0, 11.5, 18.5, 0.5, -2.0, -2.0, -2.0, 16.5, -2.0, 76.5, 19.5, -2.0, -2.0, -2.0], "value": [[[45.67391304347826]], [[68.29166666666667]], [[77.0]], [[63.06666666666667]], [[65.53846153846153]], [[66.0]], [[60.0]], [[47.0]], [[21.0]], [[34.6]], [[37.125]], [[39.6]], [[39.0]], [[42.0]], [[33.0]], [[24.5]], [[23.0]], [[26.0]], [[9.666666666666666]], [[16.0]], [[18.0]], [[17.0]], [[20.0]], [[13.0]], [[5.142857142857143]], [[8.0]], [[4.0]], [[4.5]], [[5.0]], [[4.0]], [[2.0]]], "impurity": [685.6545368620041, 71.70659722222172, 0.0, 41.92888888888865, 2.5562130177522704, 0.0, 0.0, 0.0, 188.5454545454545, 34.83999999999992, 11.109375, 1.4399999999998272, 0.0, 0.0, 0.0, 2.25, 0.0, 0.0, 34.05555555555557, 7.199999999999989, 2.0, 0.0, 0.0, 0.0, 4.122448979591834, 0.0, 1.1999999999999993, 0.25, 0.0, 0.0, 0.0]}, {"children_left": [1, 2, 3, -1, 5, -1, -1, 8, -1, 10, -1, -1, 13, 14, -1, -1, 17, -1, 19, 20, -1, -1, -1], "children_right": [12, 7, 4, -1, 6, -1, -1, 9, -1, 11, -1, -1, 16, 15, -1, -1, 18, -1, 22, 21, -1, -1, -1], "feature": [96, 96, 96, -2, 93, -2, -2, 96, -2, 39, -2, -2, 96, 96, -2, -2, 93, -2, 93, 95, -2, -2, -2], "threshold": [8.5, 3.5, 1.5, -2.0, 1.5, -2.0, -2.0, 4.5, -2.0, 0.5, -2.0, -2.0, 26.5, 14.0, -2.0, -2.0, 16.0, -2.0, 32.5, 19.5, -2.0, -2.0, -2.0], "value": [[[51.608695652173914]], [[62.16216216216216]], [[70.0]], [[77.0]], [[65.625]], [[66.0]], [[60.0]], [[43.63636363636363]], [[47.0]], [[39.6]], [[39.0]], [[42.0]], [[8.222222222222221]], [[20.0]], [[23.0]], [[17.0]], [[4.857142857142857]], [[9.0]], [[4.166666666666667]], [[4.6]], [[5.0]], [[4.0]], [[2.0]]], "impurity": [604.8468809073725, 171.86559532505498, 31.923076923077133, 0.0, 2.109375, 0.0, 0.0, 14.231404958677786, 0.0, 1.4399999999998272, 0.0, 0.0, 44.617283950617306, 9.0, 0.0, 0.0, 3.8367346938775526, 0.0, 1.1388888888888857, 0.240000000000002, 0.0, 0.0, 0.0]}, {"children_left": [1, 2, 3, -1, -1, 6, -1, -1, 9, 10, 11, 12, -1, -1, -1, 16, 17, -1, -1, -1, 21, 22, 23, -1, -1, -1, 27, 28, -1, -1, -1], "children_right": [8, 5, 4, -1, -1, 7, -1, -1, 20, 15, 14, 13, -1, -1, -1, 19, 18, -1, -1, -1, 26, 25, 24, -1, -1, -1, 30, 29, -1, -1, -1], "feature": [95, 96, 96, -2, -2, 96, -2, -2, 96, 96, 3, 94, -2, -2, -2, 96, 96, -2, -2, -2, 94, 93, 89, -2, -2, -2, 94, 96, -2, -2, -2], "threshold": [2.5, 2.5, 1.5, -2.0, -2.0, 3.5, -2.0, -2.0, 14.0, 7.5, 0.5, 1.5, -2.0, -2.0, -2.0, 10.0, 8.5, -2.0, -2.0, -2.0, 9.5, 4.5, 0.5, -2.0, -2.0, -2.0, 22.0, 36.5, -2.0, -2.0, -2.0], "value": [[[50.54347826086956]], [[70.03571428571429]], [[73.33333333333333]], [[77.0]], [[66.0]], [[50.25]], [[60.0]], [[47.0]], [[20.22222222222222]], [[31.88888888888889]], [[37.2]], [[40.0]], [[42.0]], [[39.0]], [[33.0]], [[25.25]], [[27.5]], [[29.0]], [[26.0]], 